-0.004428744 -0.009010017 0.05463959 0.0266116 -0.03936167 0.04125755 0.04869885 0.06053426 0.02003343 -0.09594195 -0.09967484 -0.0009110868 0.01140443 -0.05196656 -0.05660567 -0.04534826 -0.04641896 -0.05861184 -0.01880239 -0.0313731 -0.0510833 -0.03825146 0.08863908 0.05692835 0.04303531 0.09287383 -0.008307368 -0.04779381 0.09346258 0.07113747 0.0921149 -0.07538427 -0.06564441 0.04733321 -0.08836327 0.0318695 0.05143161 -0.0002122879 -0.07159612 -0.07639973 0.09056705 -0.04211347 0.025787 -0.03584044 -0.07378027 0.04060977 -0.02041561 -0.06205444 -0.08161727 -0.03136525 -0.02815711 -0.07751784 0.02285959 -0.03054469 0.01328831 0.07460083 -0.02810807 -0.05305688 0.07107534 -0.07353231 -0.06748658 -0.0008242607 0.009058333 -0.06614076 0.0618691 -0.02893933 -0.09118516 0.02370437 0.0716828 0.08893907 0.04449899 -0.01619528 -0.06500415 -0.08027522 -0.006444478 0.03237844 -0.08671007 0.0334977 -0.06233947 -0.02025914 0.01115992 -0.05169849 0.0850376 -0.03463519 0.03819907 -0.09456005 0.0978945 -0.006119091 0.002576554 -0.01182438 -0.04607255 0.09270077 0.008927369 -0.09455271 0.03435655 -0.009325117 -0.07859848 -0.05963086 0.0669575 -0.03108138 -0.05191221 -0.008012414 -0.06820489 -0.02311495 0.03761614 0.0176036 0.02207061 0.04510375 0.01531868 -0.07906418 0.01416749 -0.02439894 -0.03280417 0.02088107 -0.09514017 0.0811507 -0.01195409 0.04933324 -0.01455417 -0.01745918 -0.08312677 -0.02094369 -0.08602219 -0.09987508 -0.08474763 0.06247065 0.08012631 0.07584146 0.09911156 -0.0926465 0.05492589 -0.01325276 -0.06531247 0.004054284 0.03545794 -0.04314383 0.006739378 -0.0309497 0.0351823 -0.008155537 0.03840635 0.05344225 -0.07888155 0.03078636 -0.009837061 0.01500981 -0.009615821 0.07413588 0.08079764 0.09228145 -0.06286444 0.07475018 0.06794997 0.07563461 -0.0381779 -0.04626601 -0.01063229 -0.0008041799 0.01976936 -0.08134641 0.009715736 -0.09160059 0.02427826 -0.04234245 0.01109266 0.001772189 -0.07428949 -0.04918239 0.04085949 -0.09800055 -0.07768953 -0.0328985 0.03536136 -0.02234281 -0.04629505 0.09456892 0.02858136 -0.06739368 -0.08963037 -0.02460094 0.01896211 -0.05105404 -0.05244656 -0.07389084 -0.02505842 -0.09987959 -0.0484416 0.08008603 0.03020444 0.09002973 0.05399885 0.06338529 0.02571315 0.04123929 0.02924025 -0.03595105 0.05792431 -0.09392369 0.06807921 -0.05612497 0.07382647 -0.08000875 0.01522406 -0.03438519 -0.08085052 0.06734558 0.005376387 0.09775963 0.04225272 -0.0223437 0.09612041 -0.09170418 0.0406633 0.07291549 0.02557231 0.08452409 0.09428632 -0.08431386 0.08094163 0.01589018 -0.03237599 0.01594412 -0.0567562 0.07195945 -0.02189474 0.02583556 -0.09032775 0.02880241 0.06195258 -0.03510994 -0.08084207 0.0917195 0.004662681 0.04301104 0.09160837 -0.04546142 0.03330753 -0.05168448 0.04723797 -0.09170092 0.07254004 0.02484361 0.0589876 0.01783991 0.06088794 -0.002571517 -0.001553744 -0.08359306 0.0404119 0.01569594 0.04538499 0.04236306 -0.005569291 0.04085631 0.06101823 -0.01535231 -0.0363704 0.02951186 -0.01146869 0.08272982 0.02789596 0.03660144 0.06349515 -0.05601352 0.01514964 -0.03651778 0.06130129 0.02614534 0.0568507 -0.07336364 0.009431267 -0.09082964 -0.05741341 0.07502236 -0.08095262 0.04211942 -0.08101725 0.05424197 -0.01071302 -0.06164324 -0.09407657 -0.006219178 0.01700555 0.02085314 -0.07496766 0.07155656 0.01371868 -0.0390412 -0.09184148 0.006215966 0.05776541 0.04637739 0.05771263 0.009183026 0.04593036 -0.05801342 -0.07437926 -0.05632731 -0.09171278 0.08914112 -0.08398037 -0.01626648 0.09618016 0.01862216 0.08672074 0.02663221 -0.07746555 -0.01188744 0.06990602 0.04955271 -0.02156095 0.0912007 -0.07620614 0.0905088 0.079313 0.05134126 -0.04615635 -0.02412533 -0.07238573 -0.05306768 0.07299425 0.07974627 -0.04106643 0.004220879 -0.01508395 -0.06341042 0.01480871 -0.07675576 0.08053364 -0.04421322 0.09837468 0.06527915 -0.0345279 0.01057631 0.07282414 0.03659346 -0.08886002 -0.0001543224 0.07621505 -0.06364559 -0.06834729 -0.07532428 -0.02651641 0.05449528 0.0185799 0.07882605 -0.03275594 0.04812216 0.01341475 0.001385105 -0.0432613 -0.0005549908 0.02034822 0.0503898 0.0527462 0.07364523 -0.07055897 -0.01972619 -0.04226539 0.09598654 0.08651878 -0.0003423929 -0.0337312 0.009620786 0.07128166 0.04487109 0.09062469 0.03817542 0.06855308 0.0678099 0.05657674 0.05973185 -0.003334224 0.07211693 0.09644961 0.04496756 -0.05789005 -0.07521638 0.05379054 -0.07393391 -0.05222032 -0.002796054 0.02573833 -0.02841875 0.001503837 -0.019578 -0.02202858 -0.01838952 -0.08599741 0.06364822 -0.03197173 0.02278464 -0.09159559 0.0205101 0.01163785 0.034272 -0.08734905 0.04567262 0.002552927 0.08080931 -0.08101926 0.02017232 -0.003688246 0.06954946 0.009326614 0.093683 0.01406223 -0.01799375 -0.08147033 -0.09526881 0.01643043 0.07511991 -0.05367042 0.03626732 0.06312525 -0.00849197 -0.08296345 0.008304656 0.06856456 -0.06606717 0.002767384 0.02613365 -0.03050357 0.07442889 -0.07136023 0.01856306 0.05035942 0.04329255 -0.05836068 -0.07296242 0.09480236 -0.04336344 0.0216488 0.005330575 0.002395833 0.000748837 0.04723203 0.08836696 -0.07854753 -0.04665489 -0.04614215 0.07699884 -0.05140337 0.01726705 0.01725121 0.07558002 0.04228568 -0.009843022 -0.006200028 -0.04531496 -0.06461035 -0.04790857 -0.03934456 0.09587854 -0.02705346 -0.0529909 0.05661077 -0.02857725 -0.04268189 -0.006774992 0.09094097 -0.01780916 -0.04419465 0.07821026 -0.05325964 0.07721514 0.02590566 -0.009721065 -0.01724517 0.01822084 0.06736486 0.05667309 0.03426107 0.07683747 0.0597769 -0.08839836 -0.04285091 -0.08349613 0.09517812 0.0370186 0.03878542 -0.02285913 0.05467916 0.01079686 0.007574666 -0.0822513 0.07230524 -0.08575337 0.07769664 -0.02855798 0.05961536 0.02197117 0.09605873 -0.03686854 -0.04232733 0.06715886 -0.08638942 0.01221637 -0.06935102 0.0430443 -0.0499612 0.01048728 0.09389831 -0.08660541 -0.08129819 0.04473117 0.02287692 0.09765569 0.08158513 -0.07375135 0.08217219 0.0708159 -0.08557218 0.05741478 0.05735287 0.04544171 -0.06173993 -0.03693519 -0.03046626 -0.05828312 -0.01109542 -0.06022647 0.08567261 0.05353921 0.02212998 0.04526507 0.0145018 -0.02078517 -0.03125482 0.07184587 0.005959797 0.01113402 -0.08047222 -0.004046393 -0.08548196 -0.086743 -0.07413264 -0.09112608 0.08953819 -0.004361057 -0.07998576 -0.04282445 0.04659975 0.08557885 0.09136846 -0.00784527 2.157688e-06 0.02519065 -0.03042554 0.04610417 -0.07201198 -0.09714063 -0.07326397 0.007713235 0.009804201 0.01275694 0.07645941 -0.06273701 -0.04189521 0.06964799 0.08022571 -0.01063915 0.0850291 -0.03006566 -0.06658686 -0.09870872 0.08807045 -0.06524359 -0.09634569 0.023615 0.04133154 -0.08172753 0.07474976 -0.06776832 -0.01483537 0.02965044 0.02700044 0.0907434 -0.0425669 -0.008797026 0.03690083 0.001222467 -0.08815417 0.09521603 0.02136705 0.07286822 0.06165663 -0.07423081 0.02678858 -0.08031511 -0.03782567 0.04597063 0.07980305 0.02409368 -0.01931652 0.03910719 -0.02600798 0.04155401 0.04952329 -0.02398794 0.08950808 0.06251203 -0.07962452 0.03070048 -0.0777274 0.086891 0.01802388 -0.07257916 0.0791625 -0.04057748 -0.09797245 0.01102749 -0.08603699 0.02232882 0.09458615 0.08978603 0.08530755 -0.0742811 0.05429418 0.0901611 -0.04704509 0.01876211 0.08267257 0.0497947 -0.01389714 -0.07058557 0.05086056 0.07634693 -0.06364311 0.006566703 0.03183801 0.09549562 -0.002927041 -0.009657401 0.01885341 0.04274645 0.007039178 0.01799758 0.07109942 0.0038311 
-0.07627938 0.08634219 -0.06200117 -0.09251964 0.06238508 0.09368944 0.05047021 -0.06995758 -0.08028194 -0.02487645 0.05883888 0.08199995 -0.01826893 0.03881762 0.07230814 0.09207652 0.04866532 -0.08442511 0.08930731 0.02255418 -0.07549935 0.0003206492 -0.07452473 0.01602925 -0.08533131 0.06707287 -0.08589172 -0.003561169 0.05858215 0.09069913 0.09141797 -0.07033445 -0.01253526 0.009315598 -0.03603297 0.01338025 0.0411139 -0.0471934 0.07004466 0.06618068 -0.07259122 -0.002139872 0.01022171 -0.03521461 0.07475586 -0.06845349 -0.03576066 -0.0469634 -0.07683599 0.08060457 -0.006082368 -0.09255079 -0.04577438 0.09060343 -0.06540735 -0.01193532 0.0367412 0.03574569 -0.06608517 -0.003877848 -0.01482723 0.05593561 0.03683642 0.06214706 -0.08309653 -0.08436944 -0.03641326 0.05229793 0.01502568 0.04460126 -0.08100947 0.002548742 -0.01470661 -0.04160158 -0.06985854 0.05166873 -0.07625031 -0.03778986 -0.02807682 0.0304515 0.05699282 -0.00240525 -0.02406003 -0.0536696 0.0990391 -0.0438413 -0.02975918 0.09208921 -0.0491722 -0.02872651 -0.08528333 -0.0003553629 0.06799569 0.002452874 -0.05690479 0.04371314 -0.006829387 -0.006106127 -0.03176406 0.06009996 -0.01943816 0.03943192 0.01867219 0.07234603 -0.05370608 -0.07578176 -0.002477539 -0.09720071 0.0204603 0.006983638 -0.07791521 0.08585596 -0.061476 -0.08816358 -0.001448333 -0.07849503 0.003529608 -0.07219913 0.03208206 -0.06110669 0.05695052 -0.08949857 -0.05552707 0.06843638 -0.01317523 -0.05879709 -0.07412304 0.05576314 -0.008437968 0.0633132 0.03992863 -0.08476895 0.09972199 -0.04154066 -0.08542515 -0.0996808 -0.03069239 -0.01483887 0.08203154 0.06339706 0.09687754 0.03706202 -0.01809272 0.09275961 0.05017268 0.09246349 0.08634877 -0.04052007 -0.04511757 0.009168684 0.05547186 -0.06613153 -0.06914137 -0.01810869 0.03313071 0.02003103 -0.08905324 -0.03837845 0.06058037 -0.02681237 0.06769983 -0.03918737 0.03231738 0.02098442 0.04012184 0.04647179 -0.04875629 0.03541628 -0.006975526 0.00701344 0.02204008 0.01632595 -0.04651203 -0.06843188 0.03019242 0.04043378 0.0639291 0.08798283 0.02543075 -0.04317304 0.03997603 -0.0394563 -0.05221285 0.06821092 -0.005452919 -0.0769734 -0.08712979 -0.04499794 0.09185839 -0.009565628 0.0191498 -0.04505807 -0.0818043 0.03815699 0.01247629 -0.08802255 0.02425262 -0.09980261 -0.04639015 0.0003981948 -0.03144325 0.01998601 -0.04482255 -0.03005366 -0.02314349 0.03201869 0.08787503 -0.04012645 -0.03203357 -0.08328725 0.07730252 -0.04073982 -0.05119086 -0.04315308 -0.09762402 -0.05914846 -0.02973632 0.04878992 -0.04682738 0.04922296 -0.07139595 0.08602681 0.0672145 -0.02345302 0.06163076 0.07155522 -0.08958679 0.04895493 0.05742846 0.07108616 -0.0169547 0.06174601 0.04022375 -0.03967291 0.07616744 0.03889987 -0.03120325 -0.05329509 0.02604928 -0.09747548 0.05952469 -0.01478506 -0.09866536 -0.05851905 -0.001564872 -0.03178974 0.03446951 0.02913382 -0.003547895 0.06041317 0.05605441 0.04096185 0.0705443 0.03452101 -0.03781059 -0.02768271 0.07145522 -0.08976084 0.01867925 0.04696649 0.08197848 0.08857049 -0.003182089 0.08947392 -0.0420322 -0.01549593 -0.05708325 -0.03271496 0.07834599 0.01973817 0.05703392 0.002925038 -0.09947487 0.01783732 0.01842312 -0.005336523 0.06279885 -0.04860365 -0.09368508 -0.01307735 0.07165148 -0.08878367 -0.07922414 -0.07392291 -0.01914051 0.03783863 0.08559517 -0.05859603 0.02638369 -0.0114393 -0.006974071 -0.05698793 -0.04923598 -0.0215912 -0.09945685 0.004103971 0.0842727 -0.0484613 0.003288841 0.05587894 0.0736189 0.08202221 0.08529792 0.03794725 -0.03310406 0.03460493 0.04952525 0.07762891 -0.04203236 0.05545868 0.04837636 -0.09237301 -0.01021544 -0.005477607 -0.09471586 -0.001348466 -0.07367117 0.09252431 0.07662304 -0.06466001 -0.07243699 -0.0005001486 0.003299809 -0.0450102 0.09033167 -0.0308367 0.01060745 -0.04815532 0.05725333 0.01336889 -0.0122362 -0.03094721 0.0007130027 0.0286539 0.07554438 -0.09114017 0.01526594 -0.05340318 0.003868043 -0.01789533 -0.003543943 0.008888221 -0.09469663 0.09702062 -0.0396222 0.03171613 0.04300928 0.03201274 -0.07528023 0.07990374 -0.04772437 0.05944532 -0.005316734 0.05171018 -0.02840939 -0.06618098 -0.02438424 0.08922811 0.06740917 -0.05336447 -0.06820145 0.07252511 0.08648784 0.002863109 -0.0113564 -0.05155106 0.09537374 0.06814386 0.09848715 0.05549536 0.02690431 0.01792214 0.08177545 -0.08015886 0.01948519 0.09870106 -0.09671427 -0.06011702 0.0191433 -0.06957436 0.01426797 0.05355624 0.09355165 0.0299013 -0.04301418 0.01615335 -0.07054963 -0.008451432 0.04467998 0.001649117 0.001492655 0.05999783 0.00440855 0.004848635 0.01717385 -0.06792813 0.0247288 -0.03236532 -0.06511358 -0.07052805 -0.04694065 0.06309801 0.02052316 -0.04401839 0.05957112 0.03508003 0.03557104 -0.0621483 -0.07766384 0.08493346 0.08539795 0.03486964 0.09169421 -0.06718282 0.07547148 0.07829247 0.04593899 0.07666864 -0.01288102 0.02466913 0.05021788 -0.008172131 0.004118585 0.005278874 0.03493345 0.05055776 0.02728434 -0.05379912 -0.02667543 -0.03508533 -0.01771547 -0.00242402 -0.006083423 -0.01576595 0.07902659 0.04512589 0.05831027 0.01943034 -0.04100615 -0.09256044 0.03478199 0.05985743 -0.01479896 0.06627242 0.02214345 -0.06520664 -0.05049052 0.05131674 0.08559694 0.03658092 -0.04739358 -0.06539094 -0.0759877 -0.06985139 -0.05933609 0.09665228 -0.0173731 0.06889349 0.03296313 -0.01448808 0.01806046 0.09776668 0.09124004 0.07764953 0.06416982 -0.03110405 -0.02929125 -0.03359304 0.0240165 0.09967398 -0.09789533 -0.01971242 -0.03616068 -0.01095638 0.08507464 -0.05926376 0.05091472 -0.05479192 -0.05647595 0.08401769 -0.05132948 0.03254328 -0.04369295 0.03405619 0.001832879 0.03990224 0.02894552 0.05139612 0.03865867 -0.09933593 0.009086884 0.02655503 0.09291989 0.02304193 0.04692891 -0.09480319 0.057376 0.05865082 -0.09888839 0.07689052 -0.03609617 -0.05994651 -0.05580872 -0.06420307 -0.04521945 0.05308391 -0.08079179 0.04714436 -0.001595491 -0.05839391 -0.01471643 -0.0339715 -0.06085968 0.05069965 0.08542712 0.08870753 0.04224658 -0.09528406 0.07702549 -0.08989917 0.04876478 0.007829189 -0.02517439 -0.09373908 0.07111626 -0.07297593 0.09198686 -0.06544169 0.02622788 0.05306964 -0.03197679 0.01725635 0.04785123 -0.00412792 -0.05226262 -0.06537206 -0.08365119 -0.07954569 -0.0198722 0.03209668 -0.05623276 0.05568911 0.07657595 0.09735774 -0.04311753 0.05922524 -0.03750547 -0.06116923 -0.08769401 -1.190305e-05 -0.02024832 -0.04493849 -0.03679232 -0.05582041 -0.01749438 0.05876457 0.07042222 0.09839141 -0.05285753 -0.0667004 -0.08534928 0.04631165 0.05880996 -0.09428692 0.05823455 -0.09295801 0.008949721 -0.05683656 0.01351345 -0.08493228 -0.06549788 0.08887907 -0.03640017 0.06026117 0.05354605 0.08254381 0.05282341 -0.05378103 0.06632822 -0.0472637 0.09988099 -0.06273716 0.02598394 -0.09495886 0.03480208 0.06369735 0.09471074 0.06070394 0.0627268 -0.007344175 0.002678347 0.0865311 -0.06181232 0.08644886 -0.07357714 0.003894758 0.03977084 -0.01550532 -0.07479654 0.06048207 -0.02705694 0.001121807 0.01163096 -0.04954225 -0.03032857 -0.09811943 0.04268808 -0.03334188 -0.07574574 0.03600012 -0.05447847 0.01759206 -0.004232407 -0.02616147 0.0936564 0.07089348 -0.06141704 -0.05565929 -0.03440834 -0.03744685 -0.06971098 0.05760103 -0.09059417 -0.02897564 -0.08216362 0.01217881 0.02787741 0.01638233 0.09963211 0.05442276 -0.003459644 0.02085816 0.09486341 -0.006502861 0.0305595 -0.09538677 0.01348208 0.09358247 0.03049079 0.0750966 
0.05820815 0.06756534 -0.07404449 -0.02493481 0.04114037 -0.07597619 -0.04335765 -0.06108277 -0.06067231 -0.04882136 0.04899259 0.0810108 -0.009524989 0.09863509 -0.01426309 -0.0126176 -0.04421132 -0.04758228 0.05431937 0.09976555 -0.06698372 -0.002226138 -0.06037878 0.03903602 0.07518341 0.08013431 0.0009285212 -0.03047569 -0.02512329 -0.02802016 0.04028226 -0.0632842 0.006164336 -0.06915349 0.0391183 0.07624501 0.02348483 0.04210137 0.04995999 0.03829389 0.04292944 0.009527373 0.0964855 0.005556214 0.05196555 -0.03132059 0.09214171 0.0821658 -0.08012503 -0.03966788 -0.08603268 -0.02558011 -0.04705741 -0.05835325 0.02589968 -0.01815668 -0.0386401 0.0747736 -0.02618725 -0.0773642 -0.07928474 0.008143747 0.008003736 -0.08128888 -0.0542511 -0.07940127 -0.0423864 0.01702684 -0.05018764 0.07636397 -0.01945927 0.06711657 0.07060043 0.05397667 -0.0005638361 -0.04018877 0.005639613 -0.09717842 0.04222093 -0.07675229 -0.08851412 -0.01660265 0.02724006 0.07718241 0.007707823 -0.09666069 0.07852829 -0.05336269 0.04081094 -0.07743021 0.00218674 -0.05883908 -0.09313162 0.08269971 0.01453246 -0.01999372 -0.03250333 -0.07841275 0.01607504 0.01072117 0.01972243 0.04554776 -0.01653966 0.04571655 -0.08994203 0.02684467 -0.004432816 0.01657536 0.09565308 -0.05873657 -0.05998174 0.09263095 0.07786397 0.07678554 0.01335775 0.08633404 -0.05858103 0.08025599 0.03945986 -0.008957314 -0.09629761 0.0893473 0.04372691 0.05079546 -0.03508954 -0.09041467 0.03828148 -0.08832312 0.06586849 0.01173862 -0.03546875 -0.09898508 -0.07066949 -0.05020748 0.05497369 0.07568634 0.04228055 -0.08899099 -0.004698121 0.09549935 0.02572509 -0.05316957 -0.06359761 0.04162493 -0.05135313 -0.03601361 0.05798751 -0.004489827 -0.09948025 -0.02453114 -0.004034829 0.08371259 0.02929175 0.08102361 -0.09650736 0.07409082 -0.07167959 0.03015974 0.02193631 0.01529588 0.07937713 0.02312111 -0.003767043 0.02089117 0.03417223 0.03950319 -0.0908315 -0.001930404 0.0752833 0.05951115 -0.09291168 0.04397178 -0.05100358 0.002206492 -0.06464558 0.06452576 0.06772821 -0.04140766 0.03789793 -0.0851818 0.01954999 -0.04035813 -0.06057325 0.02931405 -0.07421251 0.009812415 0.02374307 0.08885583 -0.06754147 0.09339257 -0.0456892 0.04293621 -0.04332272 -0.05039834 0.08365083 -0.08393883 0.06813029 -0.0751835 -0.08910141 0.02623235 0.03638958 -0.0267879 -0.009487635 0.07320398 -0.02985838 -0.04672344 -0.07371958 -0.04971151 -0.07335617 0.02880027 0.07673128 -0.04999911 -0.05451742 0.08672853 -0.06047994 0.060542 -0.07719028 0.06685793 0.00669117 0.03414059 -0.09444802 0.0003085256 -0.03456696 -0.03873578 0.06611806 -0.09428918 -0.09751806 -0.07134032 -0.01324384 0.06187613 0.004482424 -0.05323303 -0.0957446 -0.06933603 -0.08050644 0.01315328 0.01790553 0.01816555 -0.06204011 0.09931364 -0.09181087 0.05139711 -0.0203118 0.00259484 0.033891 0.09599457 -0.06230099 0.0571662 -0.0247059 -0.02227029 0.02892126 -0.08891226 -0.02870099 -0.04867415 -0.01802686 -0.06052904 -0.007367462 -0.05599077 0.08969114 -0.05067588 -0.02220356 0.03281856 -0.07799347 0.09533054 0.01716167 0.07726973 0.05188217 0.04617393 -0.03227328 0.07795642 -0.01857036 0.03700561 -0.05991905 -0.08490535 -0.04737131 0.07468249 -0.0563956 -0.02406933 -0.005098283 -0.07358648 0.01279733 0.08940198 -0.06083516 -0.02665945 0.007602632 0.0175681 -0.09455662 0.01573098 0.04570397 -0.09976145 -0.01589264 0.01924154 0.006010402 0.06557951 0.06150809 -0.04306372 0.07779864 0.04327976 -0.01577372 -0.00959419 0.06475909 0.09599788 -0.07867495 0.03208125 0.05092418 -0.09693419 0.002015913 0.09429425 -0.07924345 0.008461189 -0.0471434 -0.007167071 0.04281323 0.09315605 -0.008961725 -0.08861137 -0.07285058 0.02526408 0.0003904581 0.09562811 0.06902226 -0.01693654 0.09915783 0.04718665 0.00821563 0.08301844 0.009734059 -0.0687932 -0.07283998 0.02333381 -0.05862856 0.08025274 -0.08012193 -0.09538844 -0.08798804 -0.03035611 0.01384344 0.04621284 -0.03719541 -0.03675312 0.02194719 -0.05565504 0.0794332 -0.02533676 0.02307427 0.08153335 -0.005944062 0.06362488 -0.04541349 -0.09744924 -0.0364018 0.0369015 -0.01556019 0.05154394 0.03548535 0.08257595 -0.01585029 0.03309685 0.07082186 0.04672348 -0.05699946 0.06435772 -0.09495854 0.0778197 -0.09748926 -0.07689162 0.06260356 -0.01078549 0.008238494 -0.09154903 -0.02607017 -0.03527355 0.06989662 0.01086061 -0.05550197 -0.03731349 0.03625007 -0.06839732 0.01576109 -0.07282942 -0.0485224 0.07409889 -0.05599738 -0.04888247 -0.04612747 -0.003873128 0.06217321 -0.08088131 0.003167045 -0.09652328 0.09824176 -0.01362722 -0.07543268 -0.02386948 -0.07905678 -0.04895359 0.07190348 0.09425857 0.006847513 -0.04122541 0.07744554 0.07430253 -0.0116277 -0.06733043 -0.0178094 -0.06232399 0.08239938 -0.06090517 0.09872617 0.06396464 0.09654918 0.04409491 -0.08744743 0.08060739 0.04894355 -0.07321738 -0.06485965 -0.06362542 -0.08653627 -0.03905064 -0.08648693 0.04310716 0.0469097 0.02572538 -0.006247699 -0.09661085 -0.06519596 0.02174099 -0.06081719 -0.07723003 -0.03447979 -0.08622461 -0.08593298 0.09723961 0.02525551 0.07825782 -0.07434905 -0.02014088 0.03769762 0.0324275 -0.0289534 -0.07181721 0.05467949 -0.05661162 0.07453082 0.03372746 -0.009552002 -0.09493693 -0.02672265 0.04861873 -0.01407397 0.07959335 -0.08659928 -0.06259658 0.09103715 -0.008719158 0.0143266 0.01363078 -0.06648708 0.01294649 -0.09962525 -0.01656338 -0.08767686 -0.07147142 0.08568259 0.009330476 0.09382587 0.01783367 -0.08755959 -0.003534281 0.006178749 -0.08544221 0.03318796 -0.01019921 0.08018648 -0.05489571 0.08118566 -0.01699191 -0.0220975 0.09494638 -0.03206947 -0.05664369 -0.07403528 0.01211371 -0.02243613 -0.08963808 -0.07336787 0.03248171 0.07163091 0.09453986 -0.04953298 -0.03891764 -0.07205591 0.01765184 -0.08787543 -0.03619906 0.02840793 0.04474924 0.0454632 -0.0484731 -0.0929336 0.03652535 0.07299371 0.09497833 0.07916373 -0.05982251 0.01817179 0.009268749 0.07481053 -0.01663063 -0.01035079 0.09806913 0.02194421 0.02781664 0.07373748 -0.01752738 0.02396512 -0.01107738 -0.06622896 -0.05798186 -0.02735069 -0.005299568 0.02717185 -0.07126218 -0.07121384 0.0679836 0.0891338 -0.01881637 -0.06777604 0.08313247 0.07330634 -0.03516287 -0.004362023 -0.08715837 -0.009919989 -0.08541982 -0.03105664 0.00334878 -0.04615861 -0.06296231 0.08787163 -0.05057461 0.01923396 0.0005078674 -0.06141942 -0.0665618 0.03139938 -0.09172583 -0.0496105 0.03712423 0.004535282 0.07654043 -0.02958637 -0.04256905 0.04553514 -0.08227097 -0.06806944 0.06458825 -0.089702 -0.05182783 0.09029653 0.08977365 -0.05378692 -0.02971978 0.03781192 -0.07263309 0.04964212 -0.01750468 0.01996579 0.08299872 0.05510975 -0.08317188 0.09419453 -0.05142481 0.01130744 0.003776324 -0.006223679 -0.01417235 -0.06451794 0.04011587 -0.08702525 -0.07035058 0.08333583 -0.08276414 -0.05075449 -0.04453126 0.07969197 0.08281203 0.07232983 -0.06308063 -0.01138823 -0.07112873 -0.08718573 -0.0911993 0.01538178 -0.0640808 -0.08723151 0.08568545 0.03968209 -0.01706985 0.03917203 -0.05186368 0.09820884 0.004753411 0.01310202 -0.0704351 -0.09768106 0.07589944 -0.03397548 -0.03799752 -0.01359909 0.04644744 0.0801117 -0.09985635 0.05966815 0.04873977 0.003002572 -0.006559694 -0.07023697 0.003257215 0.08751532 -0.02016665 -0.02303755 0.09672617 -0.09117305 -0.09592761 0.02532275 0.05775095 0.01112197 0.07810771 -0.08757951 0.01536908 -0.08715959 -0.08160486 0.09048821 -0.07475086 -0.02136313 0.09698126 -0.0276044 -0.0764175 
0.08952343 0.04514189 -1.411438e-05 -0.0850556 -0.05619351 -0.04475576 0.005686891 0.0786816 0.06140273 -0.07437052 -0.09572779 -0.03659661 0.06390653 0.05126054 -0.04111768 0.09638877 -0.07579904 -0.08618429 -0.01650336 0.06720039 0.0655868 -0.05550746 0.0494753 0.02192848 -0.04989106 -0.01047198 -0.09952571 -0.03510286 -0.05333929 -0.0495032 0.06439694 -0.03007178 -0.04150936 -0.07458121 0.01164737 0.08467918 -0.02989827 0.09354975 -0.06628326 0.08869964 -0.02063177 -0.02522657 -0.04388402 -0.01331422 -0.08768203 0.09669031 -0.06268423 -0.03650207 0.01305264 0.06251121 -0.03577441 0.0919989 -0.03052871 0.06048645 -0.03153931 0.08544153 -0.01379658 0.02351657 -0.01212086 0.02590293 0.004259837 -0.03502898 -0.0416632 0.007586074 -0.07206813 -0.002957028 -0.09901533 -0.07362242 0.08992137 0.04200127 -0.01771338 -0.05761021 0.09313793 -0.06088073 -0.01571389 -0.06863678 0.06784905 -0.01592246 -0.01151951 -0.071863 -0.04277086 -0.0389149 -0.06434613 -0.05369929 0.007544279 0.05152826 0.03182423 0.06851276 -0.01389426 0.08347529 -0.06169314 -0.08039195 0.09836812 -0.0933039 -0.004666001 -0.004031956 0.03014404 0.0713032 0.02515043 0.004855466 0.006289303 0.009459734 0.02482267 -0.08458453 -0.03710153 0.08194043 0.01466159 0.04409593 0.06963954 -0.03037727 -0.0626912 0.009412909 0.09249213 -0.08755455 -0.01819282 -0.09147221 -0.004193807 -0.03575419 0.06365194 -0.05626955 0.07786264 -0.08955197 0.06024463 0.008668626 0.05111195 0.007756365 -0.007579559 0.02168388 -0.04699233 0.01408672 0.01806626 -0.08061127 0.08902136 0.04413884 -0.02614027 0.006701791 0.01648265 0.04885383 -0.01626418 -0.05806653 0.08567351 0.09086585 0.01997671 0.02102667 0.06031922 0.08053634 0.07228255 -0.007776779 0.02349814 0.01163428 0.03320131 -0.03568601 0.03822386 -0.06782997 -0.03043661 0.09199593 -0.08300536 -0.0965633 0.08167852 0.07575168 0.08950714 0.03024744 0.01413443 -0.006527013 -0.03858593 0.06249139 0.07658537 0.0398039 -0.0003462434 0.06674724 -0.08637335 0.01854727 -0.003144169 -0.07800072 -0.08820274 -0.02950203 -0.02754065 -0.01955325 -0.08096752 0.09617964 -0.04055112 0.08078995 -0.05831771 -0.02773294 0.07762611 0.06270188 -0.07052016 -0.01591874 -0.03762294 0.02136545 -0.09245753 0.05796858 -0.07147688 -0.09884881 -0.06978937 0.0961831 -0.08892204 -0.007511675 0.01660457 -0.08236881 -0.06464007 -0.0413653 -0.04781676 -0.07293047 0.0108869 0.07534655 -0.01485292 0.0328632 0.03176207 0.07010907 0.05570924 -0.0007572472 -0.01961355 -0.009699333 -0.08206137 -0.03987497 -0.01521099 -0.06745642 -0.02764706 0.000215745 -0.08880425 -0.05760676 0.03317351 0.0822423 0.02039644 -0.08081128 -0.08670779 -0.08226785 -0.07389227 -0.06184753 -0.04421955 -0.03620249 -0.05796664 0.05181789 -0.0573456 -0.0142645 0.04405729 0.02302244 -0.005427456 0.0476612 -0.03034688 -0.02296165 0.03812697 -0.01943914 -0.05996969 0.03390708 0.06167051 0.003047895 -0.04444053 -0.07672769 0.0592656 -0.03909579 -0.01824616 0.04901608 -0.007527668 0.02861519 -0.07952469 -0.09710616 0.00448159 0.03435661 -0.05473468 -0.067573 -0.08830616 -0.07610989 -0.0651425 0.009734965 0.05718414 -0.09231707 -0.07344063 0.0557677 0.08892173 0.004982948 -0.04752803 -0.02370168 -0.05801874 0.02288675 -0.09037175 -0.02961449 -0.08899545 0.07347335 0.05751621 0.08641552 -0.07338976 -0.02575319 0.06927577 0.09935296 0.02298328 -0.09328797 0.05759824 0.09057005 -0.0918741 -0.06307727 0.04553641 0.06899186 0.0567428 -0.05253797 0.07797761 0.03343622 0.01970351 0.08995464 0.06733149 0.0358141 -0.08028214 -0.008003771 -0.001659328 -0.04506989 0.02328078 0.04030218 0.0529194 -0.07324995 0.08734139 0.09327877 -0.09303021 -0.08988584 -0.01464737 0.0567343 -0.05163082 -0.08140863 -0.03329278 0.08997323 -0.0557622 -0.02614142 0.01349212 -0.05025638 -0.01670008 0.05312726 -0.03440046 0.008251036 0.03475802 0.02959224 0.0558955 0.03446497 0.08432306 -0.01109148 0.006563806 -0.07411539 -0.07445343 -0.01128328 -0.06080171 0.05923897 0.001262629 0.002216733 0.0932731 0.03144046 0.07823005 -0.03782145 -0.07415243 0.0598514 0.08833702 -0.07614151 -0.07727026 -0.06021137 0.08864696 -0.08271185 -0.01148376 0.03458204 0.09222056 0.06246309 0.02017995 0.08439206 -0.07391904 0.05456916 -0.04069142 -0.02934635 0.08343013 -0.01674513 -0.06811924 -0.08549173 -0.05951757 -0.05704604 -0.02205478 -0.01840857 -0.0236067 0.01846677 0.003397489 -0.08765171 0.03810542 -0.04827273 -0.08692988 0.005436814 0.07785771 0.08815034 -0.07251189 0.09740881 0.09344497 0.07689476 -0.05924121 0.07232102 -0.02402272 -0.0182466 -0.05264623 0.04471519 0.05383772 -0.09400073 -0.06402603 -0.08265425 0.04111635 -0.06609601 -0.06663855 -0.07456254 0.09619415 0.05834339 -0.06101937 -0.008333343 0.06158946 -0.02519485 0.08712848 -0.008014465 -0.09804372 0.07589761 0.06509538 0.01081074 -0.08943874 0.04282505 -0.08934451 -0.02133333 -0.008741028 0.09685284 0.084939 0.08771495 -0.08189249 -0.05626196 0.01045952 0.01151909 -0.08478697 0.03652735 0.06457531 0.05301255 0.02822535 -0.08359095 0.07129796 0.02938081 -0.001140833 -0.01352171 -0.08581374 0.07763662 0.04327427 0.03964929 0.08399029 -0.02420245 -0.0415688 -0.06041372 0.03746338 -0.02245831 0.0009802461 0.09098601 0.019573 0.04444791 -0.05308083 -0.09898986 -0.02214413 -0.000703615 0.01263508 0.022865 -0.07065578 -0.06145381 0.0774895 0.02151076 -0.07265735 0.06561588 -0.031267 0.004870093 0.004696083 -0.09458246 -0.02915273 -0.06175977 -0.02175113 -0.07166059 0.09126981 0.002877259 -0.06477387 -0.06012307 0.006772805 -0.07876804 -0.08899451 0.01823248 0.0215024 -0.09006668 -0.01441025 0.007523048 0.03218276 -0.02076488 0.04257778 -0.02630445 -0.0006506801 -0.03331245 0.08666255 0.06225611 0.0005796432 -0.02996003 -0.05547432 -0.05897789 0.04858545 -0.003382361 0.07715795 -0.05876411 -0.09068533 -0.02539407 -0.02561801 -0.08599925 -0.03939121 -0.01668279 -0.03063378 0.07697951 0.03930454 -0.06344493 0.03868446 -0.07120121 -0.02346756 0.002005577 -0.06972438 -0.09999274 -0.09463731 -0.08693577 -0.06502465 -0.02635508 -0.08009253 -0.04978395 -0.01445897 -0.04385705 -0.001234025 -0.003542805 -0.07122298 0.09964927 -0.07661484 0.05473797 0.002124047 0.08393985 0.002891004 -0.05103297 -0.09661965 0.09223584 -0.08819662 -0.0009740532 0.004476917 0.003053081 0.09401357 -0.0269632 -0.05397144 0.006936205 -0.03886732 -0.0588598 -0.0313179 -0.00952065 0.08630397 -0.0662223 -0.03690195 -0.04090204 0.05933901 -0.0857166 -0.01291036 -0.0409034 -0.09567944 0.03990657 -0.0443542 -0.07229868 0.0398173 -0.000814265 -0.01815403 0.06340356 0.07405429 0.06289693 0.02431244 -0.0620471 -0.02510626 0.009479523 0.05651764 -0.03488817 0.009351969 0.06173448 -0.01511385 0.06324905 0.01596507 -0.06264662 -0.07660127 -0.0216287 -0.06638543 -0.04781781 0.05446343 0.02132802 0.01255715 0.06123441 0.04843086 -0.03285709 -0.00162791 0.09880736 0.008296323 0.05470536 -0.05126321 0.005887974 0.0532134 -0.092277 -0.07352459 0.05893674 -0.06781288 0.05384971 0.07305413 -0.01963394 0.08546706 0.03976592 0.05718582 0.01159891 0.01457977 -0.06572367 -0.01097993 -0.09201034 0.0792406 -0.06124624 0.02164151 0.06242187 0.04168019 -0.07648658 -0.0536632 -0.01778954 -0.05885325 0.002597749 0.07499824 0.03320371 0.06610236 0.05038774 0.00244112 -0.05431734 0.09875112 -0.02459626 0.01511003 -0.03552705 0.0526016 0.09537734 0.04129433 0.07653107 -0.07937016 0.05001972 0.07446333 0.06406363 -0.02244405 0.07520272 0.04880792 0.02079122 -0.007954324 0.01522101 
0.08995898 0.09765675 -0.07137113 -0.02525299 -0.06379945 0.004474592 -0.01668347 0.01734155 0.05195273 -0.02388275 0.005444193 -0.09301176 -0.04736894 -0.02166608 0.07704834 -0.03733724 -0.07372282 -0.05215496 -0.07413622 -0.04192244 0.04700607 0.03340404 0.005532372 0.09336676 -0.05991266 0.07632218 0.0582742 -0.008496726 0.009682191 0.08697963 -0.01800051 0.06756508 0.02814419 -0.02271543 -0.07955267 -0.06695848 -0.001551694 0.03093424 -0.004822665 0.08149225 -0.07811411 0.08518828 0.0215542 -0.06599221 -0.02241096 0.0006313324 0.05287592 -0.02700137 -0.0315148 -0.05416476 0.01994181 0.096288 0.04811681 0.04635037 0.06690421 0.02353964 -0.09499622 -0.02049479 0.06831408 0.0422874 -0.06711069 0.01796459 0.08575375 0.08993999 0.09163665 0.04519881 -0.03695384 0.0273394 -0.05847969 -0.01392593 0.09565909 0.06358942 -0.06189513 -0.02303137 -0.06288912 0.01962587 -0.0241645 0.004355407 -0.001425064 0.04312631 -0.02816333 0.06046525 -0.05866951 -0.01028422 0.01691619 -0.08194575 0.01593624 0.02860893 0.06701609 0.0285941 -0.07989391 0.008357096 -0.01804967 -0.05007919 0.07048044 -0.0681695 -0.07862083 -0.01463446 -0.05344468 -0.04450655 -0.02838518 -0.09719659 0.02296329 0.09511396 0.08831298 0.05080224 0.0391081 0.05567955 -0.007959711 0.0001070619 -0.07267707 0.07035335 -0.09337514 -0.02984675 0.004618061 0.04776516 0.02684077 0.03044613 0.03398423 0.008426285 0.09097431 0.073062 -0.06612468 0.03511858 -0.007946831 -0.06951468 -0.03338388 0.09713087 0.009954238 -0.07794597 0.0307824 -0.07394943 0.06281177 0.08158618 -0.03547981 0.09425626 -0.08688109 0.03946898 -0.00744192 0.08749539 -0.01428352 0.0992466 -0.05739021 0.004533851 -0.08389772 0.005085289 0.04099187 -0.01332367 0.08532267 0.08740237 -0.01709558 -0.05089295 -0.06396877 0.03555129 -0.06913654 -0.05654225 0.04240135 0.02507854 -0.04102221 -0.02161434 0.07378282 0.04420929 0.01937455 0.0586148 0.01767716 -0.04325992 -0.09762375 -0.07874397 -0.08374 -0.0899308 -0.06496689 -0.0758899 0.03808486 -0.05376428 -0.02385603 -0.04644368 0.02067801 -0.03351188 -0.08667175 -0.05678267 0.09026533 -0.08904266 0.0298683 -0.06025881 -0.07755907 -0.0699212 -0.07362719 -0.04141375 -0.05704217 0.0552686 0.09432022 -0.01067505 -0.07306514 0.01139915 0.03217458 -0.05667936 0.0506296 0.006338644 0.04535539 0.07014257 0.0765725 0.08496068 0.01525064 0.04236377 -0.07643499 0.06926828 -0.08181625 0.04706357 0.08820681 -0.07976757 0.09354811 0.02835481 -0.0660128 0.06012474 0.0745732 0.0951153 0.03844955 0.07770969 0.01358455 -0.08785735 -0.01093204 0.03192161 0.04550814 0.01069065 -0.009717721 -0.02988149 -0.04181835 -0.09667155 -0.01365727 -0.05847529 -0.02901193 -0.05282828 0.04132733 0.01434977 -0.04277931 0.06357764 0.06396525 -0.02859637 -0.04350218 0.04477488 0.09151862 -0.07994473 -0.09012271 0.02471975 -0.02581692 -0.07234073 -0.05645398 0.09623501 -0.05938064 0.09253824 0.04260283 -0.02794843 -0.08922578 -0.07882421 -0.009472203 -0.0907489 -0.03535799 0.07319763 -0.07381403 -0.05752362 -0.01441734 -0.0148263 0.03726068 0.02237653 -0.0002791107 -0.06658356 -0.008568895 0.04421706 0.05088685 -0.04482324 -0.02706192 -0.09341982 -0.02228993 0.09152 -0.01608244 0.04455377 0.05512504 0.08901375 -0.09300108 0.01245767 0.06896181 -0.09577897 0.08144183 0.09750745 -0.09106062 0.07005512 0.05612514 -0.08858912 -0.0752751 0.06034532 -0.09061328 0.07753556 -0.05380338 -0.06312567 -0.006035972 0.04085768 -0.07429846 0.03934168 0.09621584 0.05976883 0.02662072 0.03523535 -0.06006156 0.02709662 0.05924588 0.0003275395 0.09853005 -0.03910417 -0.03398638 0.0309744 0.05417705 -0.009391255 0.006579184 0.08522067 -0.02016708 -0.08174046 -0.04148619 -0.02693884 -0.03633207 0.05161292 0.0548614 -0.02952554 0.09144083 -0.09419304 0.02571633 0.05086749 -0.02050033 -0.03032283 -0.004561407 -0.02176034 0.02854791 -0.08730073 -0.0544938 -0.05795968 -0.09875084 0.03847937 0.03775952 0.08876782 0.02112761 -0.09799246 0.005973435 0.05758327 0.04960361 0.02638718 -0.01986753 -0.09253096 0.05492437 -0.04313837 0.05482267 0.03638058 0.0119018 0.05457964 -0.09915745 0.006644166 0.02244624 0.03907698 -0.001157218 -0.09066247 0.02845543 0.005852163 -0.00363918 0.06825466 0.04831605 -0.06601147 -0.03857521 0.06523035 -0.04612255 0.02968234 -0.02274274 0.09879637 0.02572965 -0.08906224 -0.05325263 -0.02307033 -0.08573523 0.02569177 0.02132173 0.02382214 -0.01249481 -0.08762243 0.07065063 0.06208482 -0.08528905 0.05877652 -0.01185145 0.004377163 -0.09594902 0.06585269 0.0349905 0.09202173 0.06121163 0.07185018 0.01251055 -0.09126308 0.03171976 -0.08233038 -0.08726319 0.06094266 0.0007467628 0.04747205 -0.030233 -0.04456456 -0.08327921 -0.06075536 -0.08336951 0.004693341 -0.06923642 0.06878282 -0.06586062 -0.01994481 -0.004289097 -0.06030463 0.09043258 0.03239894 -0.0743067 -0.05883007 -0.07404988 0.02509464 0.03515777 -0.09591108 0.08549351 -0.01436948 0.007193971 0.0955325 0.04431063 -0.0399461 -0.02847946 0.07781644 -0.05788814 -0.07950267 -0.02693069 0.01648374 0.06900579 0.01986669 -0.083335 -0.005141598 -0.0302375 0.006068218 0.02339103 0.06422938 -0.09065133 -0.03872565 -0.09006869 -0.01438035 0.03512893 -0.0451245 -0.0776434 0.01117854 0.05415082 -0.008379853 0.05113294 0.0307842 -0.03660369 0.03570073 -0.05411028 0.04065342 -0.02744739 0.08412087 -0.07152992 0.09263734 -0.07240132 -0.04915373 -0.05049033 -0.001147217 -0.04392829 -0.003518218 -0.01335039 -0.05292434 -0.02934576 -0.09221172 0.06285528 0.09836694 -0.04837592 -0.06468793 -0.05564141 -0.01468292 -0.04849336 0.05575154 -0.08179358 0.03211087 -0.06653678 0.09851314 -0.04334823 0.04296399 0.07494094 0.009849096 -0.01089903 -0.02490513 0.01663355 0.05867877 -0.03551258 -0.06953799 0.09447435 -0.08681466 0.01437211 -0.05698422 0.08763089 0.03342871 -0.0695985 0.09279505 0.06483196 -0.08010548 0.09830119 0.03104001 -0.09630266 -0.08113665 0.05782102 -0.01364794 -0.07923971 -0.00341683 -0.04561421 0.08122299 0.05608917 -0.09013882 -0.00287224 -0.02607991 -0.09057926 -0.02698817 -0.01494823 -0.09858477 0.08716112 0.003702116 0.01946007 0.05814873 -0.07448842 -0.01059558 0.01786149 0.05665202 0.06582957 -0.0363253 -0.04594858 0.04394387 -0.04448711 0.03668183 0.08315766 0.03841792 0.02195015 0.02138972 0.09147992 -0.06961945 -0.06445364 0.09418441 -0.004848266 -0.0444137 0.0315691 0.09275863 -0.09630423 -0.09348561 -0.02443427 0.03716426 0.08993866 0.003895104 -0.0611451 0.08486952 -0.08597817 -0.04479459 -0.01397283 -0.03962732 0.005864823 0.09851991 0.02824762 0.01194077 0.03049337 -0.05604893 -0.0931095 -0.09596727 0.02082392 -0.02853452 -0.02505164 -0.0778176 -0.0631818 -0.08491362 0.05248057 0.05700688 0.06704744 0.09818454 0.0326287 -0.01212096 -0.0290239 0.06583359 -0.007705653 0.02026076 0.08433729 -0.08380888 -0.09902868 0.08025324 -0.002607578 -0.09289964 -0.01662918 0.02026811 -0.05819374 0.01749177 0.002456498 -0.09741989 -0.03239968 -0.06050298 -0.08162126 0.001605713 -0.06461235 -0.07911813 0.09183642 -0.08836167 0.06490242 -0.03413595 0.02658314 -0.09567317 0.03234329 -0.07125375 0.005135155 0.02581012 -0.09602943 -0.02916945 0.06289516 -0.03171032 0.07087977 0.05448668 -0.006245667 -0.002419722 0.05865045 -0.06366547 0.03896599 -0.007658798 0.007134152 -0.02148454 -0.07645418 -0.09970488 0.04912709 -0.01199924 -0.01868346 0.02496115 -0.06003688 -0.007497734 -0.09734305 0.02606759 -0.01499055 -0.06724652 0.08164837 -0.01156168 0.01741433 0.03255187 
-0.01517427 -0.02976099 -0.07616799 0.01457945 0.08715611 0.06662542 0.07540732 0.06890317 0.07258729 0.08628666 0.01938887 -0.06793065 0.09968101 -0.05097311 -0.04803554 0.08181941 0.02300588 0.01387718 -0.0902975 -0.09613518 -0.04577903 0.08823712 -0.08352905 -0.001535064 -0.06420747 -0.0917493 0.01753066 -0.02571041 0.05207858 -0.07521613 0.03701052 -0.01368162 -0.05326711 -0.07572868 0.060858 -0.004161018 -0.09413039 -0.005182809 0.008496332 0.01684395 -0.03075911 -0.06049076 -0.07152027 -0.05675847 -0.02613207 -0.006086522 -0.05140854 0.0281935 -0.01724913 -0.09426997 0.09481336 -0.07954355 -0.06628958 0.06518575 -0.005050951 -0.02137843 -0.09419478 0.009701276 0.0316633 -0.03851404 -0.01227829 0.03472363 0.032994 -0.05725949 -0.06636456 -0.01968074 0.04096974 0.02029398 0.095671 -0.05701388 -0.07929136 -0.09099412 -0.02066088 -0.005205727 0.02710575 -0.08194084 0.04295061 0.01433673 0.05361351 -0.08147758 0.06097639 0.0005990147 0.08148395 -0.07068392 -0.004534614 0.08591958 0.0963645 0.04452572 -0.003779739 0.0878879 0.04082286 0.05947785 -0.009421057 -0.0248684 0.02653819 -0.07361747 -0.09646755 -0.01802878 -0.08469957 0.04462777 0.00713681 0.05995465 0.02325043 0.08402693 0.08976685 0.02569404 0.01761734 -0.04770483 0.04786345 -0.01218314 0.0317163 -0.06536606 0.02528344 -0.01279951 -0.07209983 -0.03898374 -0.02244033 -0.01987944 -0.07763114 -0.01164892 0.03002299 0.02180856 0.01365589 -0.06370436 -0.0697866 0.09546057 -0.04297455 -0.05122713 -0.09462091 0.05827693 -0.02788901 0.09090119 -0.02436549 0.04548409 0.06352117 0.02639955 0.04439043 0.0223201 -0.0256794 0.01403865 -0.01239824 0.06606632 -0.03111022 0.03361374 -0.003953338 0.0895138 -0.03696597 -0.05331257 -0.0384083 0.002938068 0.0006992817 -0.004768264 -0.03523007 0.07520162 -0.01448181 0.04355512 -0.0476508 0.0107097 -0.05558298 -0.09379205 -0.04119035 0.0142642 -0.01507221 0.02742328 -0.02843281 -0.01413854 -0.0519573 -0.05576146 -0.09666266 0.09335785 -0.005065072 -0.07635413 -0.0756797 -0.09673776 0.0157105 -0.05584942 -0.06013603 -0.07549839 -0.08467513 0.01061262 -0.06057854 -0.03015052 0.05831596 0.0612601 0.03997312 0.01840849 0.003031909 0.06807829 -0.05504958 -0.0824337 -0.03884976 -0.03369131 0.03443443 0.0001160264 -0.02184433 0.09395309 0.01405672 -0.06857723 0.05907358 0.09611577 0.0185462 0.0108532 -0.08686701 -0.002455211 0.02016109 0.0937588 0.01397328 -0.06839821 -0.0004803181 0.06933296 0.08932555 -0.06732575 -0.09554659 0.03022481 -0.05094707 0.01020215 0.07991101 -0.08529133 -0.08361305 0.09466578 0.07299703 -0.02833769 0.02182982 -0.08586734 0.04474657 -0.08136409 0.006678033 -0.02083604 -0.0867697 0.0652312 -0.08591133 0.01600561 -0.08721513 0.04799745 0.04309664 -0.07797284 0.03636665 0.02384236 -0.07069001 0.06530946 -0.02479909 0.03282951 -0.09811544 -0.0504288 0.002222514 -0.02691453 -0.08050442 -0.09145129 0.01359743 0.08623209 0.03665466 -0.06000704 0.03948839 0.08145731 -0.06309415 0.01732301 -0.02321246 -0.06176322 0.08824096 -0.03236295 -0.01012719 -0.06147889 0.05589852 0.02383038 0.07908671 -0.0133486 -0.06790485 -0.04875526 -0.000489819 0.03636873 -0.08934441 0.07614955 -0.03144705 0.03107494 0.06356517 0.08975724 0.06695371 -0.0802156 0.08328485 -0.08395951 0.09773698 0.01164932 0.09519174 0.09380851 0.05302126 0.09549679 -0.01399135 -0.006195975 -0.08046734 -0.02288194 -0.05890087 0.02062871 -0.02216715 0.08574207 0.01336184 0.001722598 0.01898701 -0.01988665 0.006831658 -0.05446817 0.03754137 -0.04102787 0.06734824 -0.04107732 -0.05073708 0.08695132 -0.03798662 -0.06147731 -0.04386681 0.01580362 0.04395264 -0.03834793 -0.08401702 -0.01109644 -0.007489014 0.04140711 0.05605787 0.05718575 0.002472818 0.09727287 0.09869643 0.00994196 -0.09492488 0.02957393 -0.05260989 0.03376552 -0.07948705 -0.002968586 0.005581629 -0.07143771 0.03730316 0.07653667 -0.0389644 -0.02979059 -0.08735351 0.05335094 -0.0282607 -0.07826632 0.005538881 -0.01363426 -0.04140325 -0.08166017 -0.04475635 -0.02245376 0.01562812 -0.0996862 0.04854059 0.0753906 0.03944659 0.01842326 0.05977032 -0.03261219 0.01439627 0.07912256 0.04572276 -0.03812544 0.09529739 0.031864 -0.05793802 0.02684332 0.07826693 -0.08950194 -0.01893187 0.003586137 0.03761487 -0.04151627 0.008002413 -0.09041425 0.09606867 0.07645135 0.04170882 0.03731773 0.01029996 -0.09285328 0.03858845 -0.09891691 0.08473226 -0.09954259 0.03978416 0.09963197 0.03340211 -0.03214721 0.08029876 -0.0580008 -0.08802422 0.09020593 0.0768756 0.05183901 -0.04286816 0.0682135 0.0953295 -0.08097845 0.06180605 0.01930803 -0.07492461 -0.08732592 0.01820223 -0.04433062 -0.03423592 -0.02540019 -0.09806217 -0.07535378 -0.09757238 0.06542188 -0.05416672 -0.04914824 -0.02998067 -0.04650995 0.07172295 -0.06509061 0.03999012 -0.04436178 0.02414053 -0.016286 0.02739456 0.01059277 0.09976969 0.01639982 -0.06869747 0.08698722 -0.06263631 -0.09649465 -0.07469419 0.00381341 0.06718779 -0.0147206 0.0240827 -0.08916927 -0.03228484 0.0456312 0.06152902 -0.08792072 -0.02954155 0.06880992 -0.002924019 -0.07335611 0.09403618 0.07252637 0.009673381 -0.07520559 0.007427681 0.0605377 0.0511745 0.08258795 0.00447377 -0.06010748 0.02593812 -0.01474975 0.04360037 -0.04236512 0.08995508 -0.06541221 -0.06097309 -0.05282302 -0.06817847 -0.03332038 0.004832197 -0.0548359 0.03481683 0.0651013 -0.09294122 0.08244389 -0.02840486 -0.03907932 0.03404803 0.07129103 0.03609889 -0.0705964 0.07988801 -0.04282349 0.05880526 0.05781821 0.04230012 -0.06131203 -0.05317781 -0.05902966 0.07970557 -0.09436425 0.05206769 0.02584418 0.0411394 -0.06250911 -0.02498036 0.01515726 -0.0931621 -0.04908453 -0.07461511 0.09502667 -0.02894622 0.0896644 -0.09268126 0.02901579 0.0568583 0.005853093 0.03379175 0.004702699 0.06667376 0.06070309 0.06580832 0.04332066 0.002766407 -0.002219117 0.03040295 0.04354129 -0.09799224 0.02277354 0.02798961 -0.0137785 -0.003185237 0.0622324 0.08705496 -0.02417116 -0.08331993 0.04290264 0.09390493 0.04548175 -0.03500782 -0.060864 -0.0900947 -0.009392637 0.05048362 0.04923991 -0.03722442 -0.006111962 0.08199281 0.04671993 0.08231479 -0.01179361 -0.09876705 -0.03793451 -0.09564929 0.05037177 -0.02797217 0.01172921 0.09903791 0.02381525 -0.08640973 0.09409221 -0.06702771 0.07791557 0.08727709 0.09630837 -0.02893109 0.09265224 0.05886682 0.002721453 -0.01992792 0.08485935 0.04469351 0.0387869 -0.006387639 -0.0498723 -0.05115167 0.005482054 0.06484611 0.03762267 0.07394805 0.02654047 0.01116968 -0.06711551 0.03401815 0.03993447 0.09069585 0.0897175 -0.08885947 0.04776663 0.05104482 -0.08209997 0.09797134 -0.08837072 0.05732549 -0.07504509 0.0485157 -0.01524881 0.008746075 0.03963224 0.08388412 -0.03861703 -0.002691853 0.0700681 -0.03380544 0.03983332 -0.03305882 -0.08146723 0.03204791 0.08723462 -0.004498696 0.03683299 0.03459216 -0.08813885 -0.01768579 -0.0001131475 -0.01079045 0.05857142 -0.001747787 0.04703267 -0.01793079 0.06987254 0.08159406 0.004879761 0.02286883 -0.09675974 -0.003097367 0.06198974 -0.03292805 0.09613836 0.03594921 -0.059591 -0.0738721 0.02785544 -0.065306 0.01867677 0.03548346 0.06675186 0.04482919 0.08193469 0.05033707 0.06638306 -0.05512554 0.09400163 0.008203304 0.02605647 -0.0182383 0.008839679 0.05254259 0.03756506 0.09693616 -0.01550198 0.0114338 -0.01799211 -0.06460793 0.06529256 0.09708724 -0.07525558 -0.04091587 0.03306321 0.07511606 0.08595524 0.06675772 -0.009746367 
0.02650296 -0.07928055 0.00215627 -0.02648417 0.04794517 -0.06065332 -0.08178812 0.001554883 0.0997896 0.07468235 -0.08471858 -0.02437668 0.0789076 -0.00435983 -0.08005666 -0.007972407 -0.06623127 -0.03291989 -0.08783655 0.07904406 0.02282872 0.03802328 -0.0122371 0.02444625 0.01744195 0.06174003 0.04328426 0.00349009 0.09743543 0.01922739 -0.06146453 -0.04960554 0.07054748 -0.04605178 -0.03119927 -0.03178047 0.05863218 -0.06668928 -0.03748633 -0.02426969 -0.02312548 0.08236647 -0.04106545 0.03158317 0.04668561 0.06942022 0.0379613 -0.02947862 -0.00464226 -0.05457517 0.05193394 -0.07576366 0.07310905 0.09400376 0.04647464 -0.04402662 0.03049216 0.02656417 0.09781116 -0.008969456 0.07222121 -0.03224258 0.01732011 0.06142343 0.01284087 0.005545259 0.07835288 0.0003802896 -0.09987274 -0.07012671 -0.02103123 0.05602095 0.03975059 0.02150791 0.05624549 0.0004195571 -0.07424507 -0.03685881 -0.05213021 -0.002824849 0.01189439 -0.03378193 -0.04581241 0.08859458 -0.03774199 0.05732862 0.03200307 0.04431026 0.02429967 0.04464293 -0.09180857 0.03517079 -0.07028805 0.02201003 -0.09231672 0.04179584 0.00544852 -0.0467091 0.06088496 0.07045207 -0.08552331 -0.04603496 -0.03741744 0.06693697 0.07845223 0.03209026 0.0466082 -0.09312036 0.03881646 0.0367608 -0.03875573 -0.0968498 0.01473116 -0.02882578 0.05776289 -0.08460641 0.04173855 -0.05195541 0.01818131 -0.02648999 0.002382434 -0.04227432 -0.03697205 0.01545172 -0.002333838 0.01631804 0.04156381 -0.06695711 0.04369134 0.05470882 -0.01218339 -0.05770613 -0.02903425 -0.09856158 -0.0638054 0.04586362 -0.09644708 0.05320751 -0.01073872 -0.03814307 0.08230658 -0.08171379 0.09576904 0.02807316 -0.07126936 -0.04956222 -0.05490359 0.0008948445 -0.08501858 0.08574475 0.0742872 -0.07150499 0.04755048 -0.04934336 0.005991447 0.08378953 0.08153453 0.03730933 0.05496684 -0.007773501 -0.01515469 -0.04013965 -0.09128666 0.09108403 0.08769792 -0.03929245 -0.01433666 0.05998695 -0.04941911 -0.07711828 -0.08890419 -0.07433476 -0.09740037 0.08955357 -0.07250043 -0.01437153 -0.02101052 -0.0648623 -0.03055053 -0.008973444 0.00209322 -0.02757476 0.00872221 0.06883585 0.05806729 -0.04266731 0.03261552 -0.007483465 -0.06580046 -0.08779403 0.07798833 0.05496088 -0.02901264 -0.02594302 -0.02833491 0.06858158 -0.03153698 -0.006448889 0.0393503 0.06786256 0.0583818 -0.08145552 -0.001710063 -0.07054385 0.02297845 0.003801632 0.01393853 0.09589291 0.0540684 -0.0586012 -0.05699724 0.01222409 0.09503447 -0.01027904 0.08435827 0.07244586 -0.01942079 0.07170644 0.04750219 -0.07041203 0.06609221 -0.07169258 0.021522 -0.01927328 -0.09765626 0.02951083 0.08200351 0.08956422 -0.03319735 -0.07567995 0.07025347 -0.05954307 -0.06442373 -0.009103102 -0.08660894 -0.04970813 -0.01487523 0.0263855 -0.0779972 -0.02748097 -0.03575566 -0.03265957 0.03018755 0.05315292 -0.09325043 -0.04794856 -0.04766364 0.008198285 -0.09288286 -0.007592964 -0.02502536 0.04450152 -0.09424604 -0.01013874 0.00136267 -0.04608862 -0.0893065 0.06268706 0.07016988 -0.003272068 0.03762783 -0.06018426 0.0003875852 0.09124823 0.06618547 0.03275529 -0.03269086 0.04929334 -0.09873579 -0.05826256 0.07352228 0.06316876 -0.0004616141 -0.04097801 -0.06937479 0.03365189 -0.04639989 0.01754985 -0.08691003 0.0595555 -0.07493552 0.03681044 0.0272747 -0.09324136 0.008027566 -0.06992536 0.01439383 0.0006894589 -0.07959296 0.05620247 -0.07675553 -0.04137045 -0.02751349 -0.0364277 -0.07413571 -0.07847996 0.05076497 0.004901004 0.07744614 -0.06854388 0.09922607 0.03061366 -0.05249644 -0.09651009 0.07098025 0.03048334 -0.03055131 -0.09630305 -0.03679849 -0.006751472 -0.03119311 -0.008880466 0.002604604 -0.007468694 0.04526739 0.02873604 0.00315429 -0.07661261 0.0239465 0.02191129 -0.05998802 -0.01176559 0.08513273 0.08016565 0.05510753 0.09270132 0.02502651 0.05549537 0.09610547 -0.03036878 -0.03351054 0.06766976 0.01619364 0.04546088 0.0952014 0.00150944 -0.06604982 -0.09688804 0.02093885 -0.09014946 0.0722472 0.03733435 0.01294265 0.07842546 -0.03117183 0.01425601 0.08020663 -0.02860886 -0.01373816 0.06419971 -0.01695108 -0.01761769 0.005805087 0.04394891 -0.09981176 -0.05618644 -0.08231147 0.09838255 -0.09773447 0.009203983 -0.03290502 -0.0950731 -0.05258658 0.02881727 0.08654529 -0.03973326 -0.08970865 -0.01524438 -0.03329108 0.06776203 -0.01307029 -0.06696991 -0.08089902 -0.0246975 0.0247954 -0.01299177 -0.03107629 -0.04705938 0.06061186 -0.02029411 0.05641049 -0.0819601 0.08926898 -0.01340809 0.005216754 -0.003323823 0.09534205 0.05288924 0.01660278 0.08088523 -0.03758484 0.04301032 0.09807714 -0.04072351 0.07658642 0.005435145 -0.0515753 -0.05222378 -0.09204204 -0.09649581 -0.03947181 0.03948722 0.0926515 -0.05532875 -0.0175061 -0.07775106 -0.05183274 0.0788113 0.08874507 0.07692339 0.06761049 -0.09376293 -0.08938773 0.004739463 0.03489518 -0.08856559 0.03013272 0.08768325 -0.008526283 0.06273814 -0.05945625 0.04367555 0.0005741239 0.06452515 0.008374763 0.09029646 0.01941935 -0.03302924 0.03022227 -0.06428152 0.02610039 0.0004195809 -0.06695133 0.09322896 0.04945821 -0.07256233 0.002498198 0.02525381 -0.02778288 -0.07679833 -0.05666542 0.02417471 0.08991716 -0.02372532 0.02984556 0.03678543 0.04803338 -0.04869999 0.03291452 0.0651359 0.06932139 -0.08313756 -0.09586947 0.01222228 -0.06102346 0.04216851 0.07621094 0.04372776 0.05763012 0.09313214 0.08463535 0.06475146 0.03857189 0.09591329 -0.0221769 -0.05834817 -0.06102576 -0.005554092 0.0500175 0.0471951 0.010931 0.02565142 0.08427644 -0.02694511 -0.0960676 0.07762803 -0.08371431 -0.09860087 0.04247347 -0.01316061 0.03930751 0.011961 -0.08159903 -0.0294412 -0.01051561 -0.08939821 0.0712672 -0.07978871 0.07812919 -0.0124337 0.02874118 -0.0125366 -0.02343433 0.01487289 -0.06748823 0.06747025 0.08625561 -0.07066431 0.09710366 -0.08245152 -0.04035101 -0.08782237 -0.02297068 0.01415671 0.09346677 -0.0284621 -0.03808026 0.004564464 0.04405249 -0.04996896 -0.007723254 0.06202017 0.05034029 0.02817 0.07869023 -0.07477921 0.03882664 -0.0929945 -0.03814734 -0.08956328 -0.07291583 -0.009799135 0.08204518 -0.04177376 0.08892661 0.06468651 -0.0838958 -0.07220252 0.09996375 -0.06156727 -0.03092005 -0.02536982 -0.02974747 0.06346548 0.07785828 -0.08535095 -0.07706204 0.08781832 -0.03481498 -0.0009741843 0.02882649 -0.004168153 0.05058035 -0.07658179 0.07708292 -0.07200342 0.0585202 0.02123013 -0.06601235 0.04629993 0.08123199 -0.03348127 0.0584501 -0.02594087 0.0504826 0.01926569 0.06817855 0.018088 0.09529586 0.07232235 0.07508276 0.0787146 0.05809828 0.03526098 -0.008976012 -0.06859382 -0.06797705 0.09929981 0.07690571 0.01353786 0.05908368 0.08029268 0.09194639 -0.0585948 -0.04888767 -0.05589899 -0.06494997 0.07756839 -0.07800239 0.01358901 0.09353353 0.02624289 0.01965123 0.0247509 0.03000708 -0.07821473 -0.08293684 -0.05336739 0.005196846 -0.009594602 -0.05062425 -0.0339917 0.005140662 -0.08308526 0.02839058 -0.001567626 -0.03043019 -0.04797766 0.07204431 -0.06648848 -0.09768827 0.06288695 0.03632987 0.06603189 0.08678404 0.05521376 0.01442176 -0.03733895 -0.0682854 -0.08091549 0.01879861 -0.02416581 0.04222754 0.0110198 0.07251724 0.07935847 0.05735499 -0.04685651 0.05978966 -0.05280231 -0.02256833 -0.07745438 -0.02828779 -0.001725847 -0.04422744 0.0798372 0.009281683 0.07257105 0.09169366 0.06647413 0.08891038 0.01447487 -0.08156531 0.07992077 -0.04359033 0.0862843 -0.03485001 -0.01075162 -0.05361171 -0.002511251 
0.01801633 -0.0857517 0.01268671 0.04378871 -0.006284869 0.01802238 -0.09558482 -0.02077052 0.02334834 0.09051754 -0.03078944 -0.08018302 -0.01338655 -0.08900065 -0.07518276 0.03923535 0.05273844 -0.04710242 -0.03277073 -0.0278027 0.06544971 0.04980942 0.0247084 -0.04885429 -0.01873129 0.04612399 -0.07793367 -0.08374834 -0.02013417 -0.04697573 0.04613154 0.04509214 -0.06604147 0.08935304 0.01948702 -0.01229632 -0.07277795 -0.05467201 0.001279366 -0.01639415 0.05755812 -0.07637266 0.002882731 0.0650145 -0.01887177 -0.07488734 0.01055956 0.05367107 -0.07849194 0.05207297 -0.01095988 0.04389143 -0.03299627 0.06550181 0.003835714 0.03208437 0.07442439 0.007987452 -0.06505496 0.04313681 -0.04488742 -0.06588408 0.09052875 -0.03216514 0.07930287 0.01017208 0.04992107 0.05423193 -0.06124618 0.09464311 0.05340536 0.003546417 -0.07115369 -0.04010515 -0.09788468 0.08423095 -0.09359814 0.07491393 -0.06406283 -0.04705423 0.08004824 0.0620926 0.07221682 0.01775061 -0.09223624 -0.003438705 -0.04958555 -0.01230515 -0.05831563 -0.0447742 0.07241475 0.07351179 0.09547164 0.05815083 0.01195443 0.06379936 -0.05835826 0.05363607 -0.03482234 0.07542338 0.02709252 0.08128314 -0.009886575 0.01182408 -0.06763039 0.005660617 -0.04348319 0.006663037 -0.09886697 -0.0943174 0.0309963 -0.06056146 0.02688338 0.03238151 0.05193371 0.05943928 0.02519238 -0.05618158 0.04228634 -0.02202096 -0.05944894 -0.007887489 0.06625148 0.0477579 -0.02525619 -0.07499666 0.0430627 0.01402 -0.06243653 0.0926498 -0.005603183 -0.07173445 0.02591517 -0.04487443 -0.01843118 0.09452089 -0.06805886 0.0762535 -0.04481624 -0.0192936 0.08820385 0.01647261 0.0910207 0.03215054 0.06825346 0.06620631 0.06427605 0.007184673 -0.06623805 -0.05858604 -0.01232195 0.01269388 -0.04444546 0.051185 -0.09476141 -0.02509674 0.07839497 -0.04183492 0.08627305 0.001426434 0.04824939 -0.09989145 0.0494575 0.08006705 -0.08566669 0.01039475 0.03868836 -0.06863149 0.03399144 0.01630061 0.07999446 -0.05962379 0.09153926 0.05748483 0.08461815 0.09813336 0.02217505 0.06143028 0.05892716 -0.03030729 -0.0513871 -0.02992721 0.06155324 0.0694418 -0.004165608 0.04724038 -0.04842099 -0.05043584 -0.08278789 -0.09634251 0.09050576 -0.08417847 0.003633392 -0.0675603 -0.06239934 0.03606262 0.09656169 -0.02942556 0.09635069 0.06896535 0.09617957 -0.06154666 0.09522877 0.04683565 0.09411043 -0.08945968 0.02117106 0.09169809 -0.007607913 0.04811854 -0.06691418 0.03044208 -0.02751196 0.09002757 -0.09956428 -0.08853261 0.0387 0.08670938 0.06344485 0.004957628 -0.08621919 0.0606022 -0.05119039 0.03463758 0.07798686 0.03147858 0.00852555 -0.05147538 0.06888898 0.07910106 0.0181869 -0.07542779 0.03407699 0.07764781 -0.04351145 0.01029148 -0.09729569 0.0009221554 0.01398693 0.04959235 -0.06040218 -0.0960516 -0.04122811 -0.01850179 0.05261271 -0.06880101 -0.03116795 0.04096769 -0.09655654 0.04939162 -0.02192007 -0.07883191 -0.03625238 -0.06362522 0.01645981 0.07975119 -0.009425461 -0.06838451 -0.06584963 0.0968863 0.07608876 -0.06508334 0.06786535 0.03037599 0.09338857 0.04423807 -0.08083559 0.05571774 -0.01110778 -0.09484932 0.07602958 -0.08900132 0.08470771 -0.02069783 0.0290275 0.0395749 0.09901094 0.024331 -0.08072119 0.03679409 0.08100939 -0.05441561 0.0026595 0.04991082 0.01005057 0.003460372 -0.02473634 -0.08313359 0.03278799 0.09849193 -0.04460449 0.0873332 -0.01947637 0.01645013 0.01382746 -0.08377194 0.01937987 0.05602542 0.03364496 0.07480416 0.06553223 -0.02362208 0.07970331 -0.05614587 -0.02738963 0.0704115 -0.011677 0.07362036 -0.07524289 -0.04743861 -0.07651802 -0.02988419 0.04824089 -0.06486066 0.04225805 0.02196288 0.07279857 -0.0508786 -0.06958359 -0.003024668 -0.0385052 0.008815444 -0.05344577 -0.05988251 -0.04307548 0.03256862 0.04668729 -0.01836978 -0.003559083 0.09112918 0.08504031 0.0341386 0.01305932 0.03621165 -0.00112682 0.02450057 0.00660274 -0.09783836 -0.008041817 0.02824726 0.02558684 -0.0246146 0.0673458 -0.04364524 0.03394433 -0.02351137 -0.07124378 0.09226399 -0.07004328 0.06240488 0.0258162 0.0522458 -0.08817381 -0.009392626 -0.00401817 -0.008699233 0.07708454 0.06108984 0.0891731 -0.03177328 0.009930456 0.03685051 -0.04254394 -0.08724513 0.04717601 0.07271445 -0.06283955 0.05085689 -0.05893464 0.04574046 0.04435908 -0.001000536 -0.07197019 -0.008479876 0.08950768 0.05716993 -0.05171593 -0.006546474 0.06070939 0.05842079 0.02622536 0.07065542 0.07379701 0.04658496 -0.05383033 0.06018639 -0.04577785 -0.002028573 -0.02327207 -0.005504674 0.07235267 0.09980705 0.05978798 0.04550562 0.08063414 0.01504976 0.00447352 0.08767471 -0.03374668 -0.05290077 0.05080656 -0.0673358 0.02772535 -0.02819877 0.01341897 -0.02065156 0.03696151 0.08199705 0.08440682 0.02082493 -0.02240979 -0.08037776 0.02464592 0.0340523 -0.004593831 -0.03695363 -0.03996527 0.09621405 -0.02694543 -0.07632316 -0.05312544 0.04159708 -0.03162311 0.07163662 0.007287824 -0.02376603 -0.03422957 0.02703242 -0.01209836 -0.08254236 -0.08630592 0.03669444 -0.04272055 0.05857759 -0.05151143 0.01950014 0.04502441 0.08012972 0.04130582 0.07309655 0.05559546 0.08040868 0.0979317 -0.06306937 0.01514469 -0.05083948 -0.07814937 0.08776597 0.01756351 0.08750707 0.02242308 0.04700227 -0.03696785 0.001180911 -0.01040182 0.01514893 -0.09787272 0.0002977371 -0.09867231 0.01915327 0.08642606 -0.02450861 0.09847627 0.02770803 0.02729272 -0.05493708 -0.0975398 0.07111616 -0.0813047 0.02313953 -0.05118678 -0.005368847 -0.06806397 0.05917263 0.03509862 0.02072153 -0.02319987 0.0999609 0.08197244 0.08454417 -0.08014741 0.01725833 0.00307833 -0.09412034 0.05231937 -0.01863411 0.07786556 0.003847575 0.04202978 -0.04236395 0.09082919 0.02657844 0.0345017 -0.008352709 0.04750813 -0.09761114 0.07527454 0.08013936 0.07760432 0.06869359 0.02290371 -0.0546535 0.04660105 0.0952576 -0.04141799 -0.01982213 0.005730737 0.06920358 0.04152947 -0.04051284 0.04652759 0.04615 0.05862032 -0.01883358 0.02454648 0.03543254 -0.05107207 0.02906638 -0.02073063 -0.06431348 -0.08302697 0.06057256 -0.08175031 -0.05068837 -0.0276958 -0.02217552 -0.07996038 -0.001397985 0.02640331 0.02567056 -0.03456062 0.03976016 -0.05642891 -0.04979078 0.03822856 0.06479303 0.05855352 0.06906527 -0.06316473 -0.03740266 0.004594707 0.02087666 -0.06360561 -0.02675082 0.07385142 -0.06781376 -0.00375092 0.03378902 -0.06049699 0.01440346 0.06074313 -0.03275811 -0.04284873 -0.05016217 -0.06954695 -0.05687454 -0.03485213 0.03300618 -0.04765178 -0.04505516 0.08452081 -0.07242947 -0.004222536 0.0234978 0.07160942 0.00320046 0.04337329 -0.02885199 0.09326553 0.04919017 -0.03084663 0.01519303 -0.008126194 -0.02787272 -0.08034084 0.04042874 -0.04001006 0.06173122 0.03610986 0.01348798 0.08830332 -0.08140742 0.02548515 -0.07526361 0.016067 -0.03156561 -0.0618759 -0.007064676 0.06449781 0.08149467 -0.09826135 0.01271958 0.08489128 0.09030731 0.005000639 0.008479774 -0.02964464 0.03227171 -0.05313163 -0.05122354 -0.06672291 0.0133301 -0.0878598 0.07730734 -0.08564648 -0.02391467 -0.09521024 0.002085221 0.008692932 0.0892504 0.05451287 0.01097393 -0.0599946 0.09747328 0.01644935 0.0166217 0.03932493 -0.07631397 0.03179425 0.02687807 -0.01682042 0.09231812 -0.05483189 0.0133319 0.02391862 0.07041861 0.089565 -0.009290785 0.005884969 -0.07864037 0.02567322 -0.02957924 0.09899103 -0.06070238 0.08149182 -0.03534101 0.0874804 0.02956818 0.01591667 -0.06846179 
0.0295326 0.08210772 0.07832751 0.06628437 -0.07326327 0.03614436 0.07015403 -0.008570236 0.0402541 -0.04211745 0.001536524 0.07272579 0.0331297 -0.001831257 -0.006879878 -0.03660089 0.01716766 -0.05937403 -0.007862157 -0.04178512 -0.03954604 -0.07250355 -0.05967338 -0.006971115 0.09591448 -0.03977029 -0.0615564 0.004084229 -0.06988817 -0.01954201 -0.09075269 0.01180559 0.05247624 -0.08685446 0.00810231 0.07452553 -0.07288974 -0.02333962 -0.09183711 -0.001231486 -0.04089519 0.02714993 0.03800773 0.003116858 0.07996915 -0.06905944 -0.005903495 -0.01052229 0.09069066 -0.06476562 -0.04837943 -0.01827671 0.08568602 0.03843473 -0.07479989 -0.07483222 0.07864668 0.02327385 -0.07420018 -0.07319761 -0.02775707 0.0052876 -0.05954874 -0.01251968 0.07524639 -0.05661354 -0.0424378 -0.04186149 -0.06502168 -0.07326552 -0.09002794 -0.07383951 0.02061129 -0.07287043 -0.04155363 -0.004943764 0.07041986 -0.08250507 0.01299367 -0.04015118 0.07957488 -0.05124917 0.09446609 -0.0107969 0.01125928 0.09772503 0.02583681 0.0117965 -0.09261729 -0.02972396 -0.03584952 -0.06284793 -0.02852339 -0.0571324 -0.06614567 0.0953944 0.08285761 -0.01013181 0.05014586 -0.01738476 -0.06604405 0.04736203 0.07571997 0.09250126 -0.08814736 -0.05252188 -0.03512819 0.0737973 -0.007704956 -0.05582119 -0.001491392 0.05126922 0.09545679 0.06052277 -0.05974459 -0.08626568 -0.05789305 0.0697174 0.01027026 -0.07122878 -0.08456048 0.03421067 0.007639325 0.05737232 -0.07162952 -0.04106465 0.01550854 -0.05091939 -0.05369603 -0.07789335 -0.05787617 -0.02168285 0.08184552 -0.03537668 -0.02941323 -0.006029588 0.08810631 -0.03011001 0.05671268 0.005138386 0.04959854 -0.0367457 -0.03922392 -0.08014309 -0.0491075 -0.006780922 -0.02859483 -0.01157951 0.08815593 -0.06514131 0.09036501 0.03080176 0.03318926 0.07820492 -0.05960361 -0.04354572 0.05672106 0.08902694 -0.05548288 -0.07088558 -0.05818022 -0.009119409 -0.07719778 0.09242827 -0.09247796 0.08993224 -0.03303041 0.06124023 -0.09023091 -0.06479299 0.04366453 -0.03930074 -0.07244321 0.09153034 0.03288142 0.08573952 -0.01769278 -0.09633061 0.04248074 0.04688388 0.06628489 0.09914098 0.07774506 0.03311328 -0.06837668 -0.06492185 -0.01121509 -0.03303941 0.06522938 -0.06523474 0.004783487 0.08769679 0.04243515 -0.02303248 0.09789637 0.02610413 -0.07477619 0.09751991 -0.07406826 -0.09771106 -0.03783133 0.05811772 0.007116497 0.05774773 0.04667659 0.02416921 0.07595203 0.0625278 0.09550496 0.08710891 -0.05834144 0.05038675 0.08737087 0.002896976 0.08878422 -0.04278334 0.08389258 -0.03851597 0.03462417 0.0605153 -0.05575069 -0.08028918 -0.05922362 -0.03643076 -0.06725588 0.01116259 0.06602275 -0.09925656 -0.02107014 -0.02894863 -0.09665971 0.04735302 0.03607823 0.02787806 0.05561334 0.03716425 0.01865373 0.04024478 -0.02798534 0.07396543 0.03558538 -0.06237329 0.04508147 0.01648363 -0.03619687 0.05098727 0.03683442 -0.03184351 -0.02605975 -0.004707974 -0.06531452 0.01498828 -0.07968667 -0.01544692 0.03831238 0.07145087 0.01079785 0.08393319 -0.0974176 -0.03272869 0.04197762 0.02615986 -0.0925355 0.06290721 -0.08901437 -0.09400978 -0.08973595 -0.008634865 -0.03334838 0.08288335 -0.04925171 0.05017666 -0.05667835 0.06529299 -0.006232202 0.02287526 -0.001529777 -0.04927077 0.02460042 0.05520461 -0.01552085 -0.05190157 -0.07523272 0.0102056 0.07725104 -0.07789154 -0.06798519 -0.09226625 -0.01132299 -0.09831004 -0.09882214 0.03275963 -0.03387622 -0.09744983 -0.08403508 0.06205932 -0.02002624 0.06484704 0.06698841 0.03532331 0.0179338 -0.001018983 0.08798269 0.05938014 -0.05577228 0.05302904 -0.008405275 0.06213586 0.03408397 -0.001041824 -0.05658669 0.09836309 0.009430385 -0.01477065 -0.01803007 0.09370418 0.07580935 0.07448534 0.09840807 0.001034796 -0.07433825 0.0775935 0.09911598 -0.0482065 0.04128251 -0.0274494 -0.07259756 -0.05117855 0.01489226 -0.09689539 0.05672243 -0.04136418 -0.04962796 0.06645383 0.001726615 0.08101882 0.01331524 -0.001715952 0.001951599 0.06758118 0.08233602 -0.08723348 -0.05032167 0.05075764 -0.08210454 0.0813866 0.005874598 0.02166734 -0.0686387 -0.08854812 0.065472 0.004898524 0.05305909 -0.04778257 0.02293093 0.02800782 0.009335649 0.01199118 -0.005985588 -0.01318971 -0.002981472 -0.01360026 0.02696179 -0.007035017 0.06561704 -0.07042458 0.0202342 -0.04160351 0.05098475 -0.03454382 -0.06697384 -0.05992762 -0.09662743 -0.03288977 0.01168202 0.007552779 -0.09683921 0.04124672 0.05007842 0.06581253 -0.02741325 -0.002868235 -0.05591049 -0.07120416 -0.07233149 0.05048591 0.03443482 -0.08586317 -0.0691452 0.01676344 0.01737286 0.08220448 -0.09478354 0.08057511 -0.01230737 0.0847856 0.04625404 -0.04376185 0.04840633 -0.09900278 -0.02675322 -0.01309907 0.0131127 0.04915512 -0.05270573 -0.03898196 0.003058016 -0.07945802 0.09029039 0.09294217 0.05702082 -0.06640698 -0.07328603 -0.09942652 -0.008403379 0.07761689 0.08980685 -0.07426485 -0.04099326 -0.009723521 0.05676207 0.09760197 -0.02892814 0.03729531 -0.07872949 0.0001323462 -0.03621144 -0.01306499 -0.04992864 0.04167524 -0.00895446 0.02761029 0.07201096 0.09149986 0.01300461 0.01018592 -0.006812883 0.0185954 0.05444495 -0.08846032 0.08240745 0.07951486 -0.02881207 -0.09930332 -0.07883824 -0.08298553 0.09551827 0.06312553 0.04600238 -0.05011589 -0.0388254 -0.05094095 -0.004190016 0.06499 0.08627591 0.0787886 0.07778741 0.01741961 -0.08463351 0.008540178 -0.06249566 -0.06987728 -0.05873549 0.08576703 -0.09470461 0.005970943 -0.01718304 0.0352641 0.07846103 -0.08086046 -0.00730657 -0.003727961 -0.0463706 0.07268683 0.09712978 0.03711593 -0.03008514 -0.00951835 0.08507382 -0.08575453 0.003364003 0.01940768 -0.07475143 0.04593637 0.0219557 -0.06465927 0.0822367 0.09537341 -0.02710736 -0.03731656 0.025905 -0.02392244 -0.09793466 0.07581829 -0.01911709 0.0437412 -0.01596622 -0.03798188 -0.002890056 0.01422646 -0.08586373 -0.05353153 -0.02198981 0.09834111 0.06035617 -0.02354299 -0.06554701 -0.03269839 0.04220409 -0.006118435 0.0157059 0.00907662 0.06149093 -0.07854118 -0.08004979 0.08113591 0.04484168 0.003042698 -0.006579673 0.008587492 -0.002790099 -0.0490311 -0.08468005 -0.03498905 -0.05392598 0.02187656 -0.04773557 0.04764674 -0.02315442 0.03977407 0.0666239 0.008526075 -0.04893348 0.06916457 -0.07891484 0.03266076 0.01886327 0.008322763 0.05557212 -0.008824646 0.08528133 0.02916916 0.03999336 0.03847054 -0.02887775 -0.05240765 0.06954732 0.07893057 0.0004190207 -0.03790162 0.07420415 0.06892943 0.04222523 -0.02594717 -0.07311777 -0.07432717 -0.01074792 0.01623448 -0.05328433 0.02296275 -0.05173116 -0.08646914 -0.03759899 -0.0532984 -0.07930339 0.02639668 -0.05116943 -0.07650505 -0.02221049 0.0781991 0.08036792 -0.02124299 0.04332482 -0.09305979 -0.03158066 -0.02317585 -0.001814997 0.04858958 0.06941302 0.07801801 -0.04523177 0.06588247 -0.09266207 -0.08694401 0.05799226 0.0884787 -0.04419897 0.0413074 -0.01198158 0.02466813 0.01691458 0.006567776 -0.003918511 0.05637177 -0.07507315 -0.03715669 -0.05546995 -0.07415122 -0.06880764 0.0482214 0.06094252 -0.06549814 -0.0402044 -0.09926648 0.008509791 -0.05184131 0.08809282 0.05991152 -0.006381113 0.0473469 -0.05841584 -0.08595274 -0.0396692 -0.03013746 0.02920314 0.06270706 -0.07528029 -0.02196604 0.00894742 -0.06937684 0.05222771 -0.06880802 0.01842131 0.01654618 -0.09160315 0.02177243 0.01371795 0.08085897 -0.06752204 0.09684254 0.09214956 -0.04587836 -0.06197493 -0.06756944 0.01632605 -0.0847693 -0.01955307 0.03959629 -0.08281364 0.01189196 
0.01941454 0.03620907 -0.05286415 -0.01833503 0.09553961 0.04873831 0.04188008 0.08544262 -0.08063452 0.006893837 0.06276292 -0.04602118 -0.04544829 -0.09413099 -0.01849872 -0.06314426 0.06412678 -0.04488103 0.08521359 -0.04312425 0.04019124 -0.07337192 0.08067799 0.05549335 -0.06080759 -0.06309863 0.008187795 -0.02885305 -0.003876656 -0.06731687 0.01721991 -0.09938578 0.03470137 0.01418845 -0.0184985 0.02583196 -0.08624452 -0.02597088 -0.03327168 -0.01095057 0.06129687 0.06971297 0.02549027 0.04596049 -0.04768695 0.03949806 -0.05777685 0.04459668 0.06643599 0.02932905 0.08540384 0.0736709 0.0454448 -0.08088868 0.07676046 0.08908971 0.06321996 -0.09726807 -0.03313517 0.04348569 0.02887491 0.0277207 0.06128713 0.06798216 -0.04572073 -0.008508784 0.009656012 -0.07306308 -0.08731989 -0.08182963 -0.02617129 -0.01443131 0.03119236 0.05212283 -0.03817493 0.05146359 0.02000557 -0.03293355 -0.03621131 -0.09120834 -0.09396004 0.01452911 -0.002253896 0.05202376 0.02099562 -0.09047079 -0.07290099 -0.07382808 -0.06213682 0.08365331 0.01821615 0.02556174 -0.01756573 -0.03747373 0.02066628 -0.09167796 0.07545298 -0.08449595 0.0726035 0.09060154 -0.05464678 -0.06557452 -0.05417487 -0.01668487 -0.008579063 0.02164344 0.009300125 -0.09115056 -0.09594189 0.03639528 -0.01845613 -0.02020882 0.04267321 -0.04094988 -0.03209794 0.09315341 0.01624898 0.02547019 -0.02582531 -0.01151835 0.005722821 0.04788177 0.0438131 0.03372742 -0.09179758 0.04454137 -0.05997745 0.04162971 0.03503355 -0.03608838 0.09540137 0.03906418 0.04081117 -0.0116057 0.001024258 0.08254707 0.07101798 -0.05772733 0.04450256 -0.07252935 0.09822144 -0.08530238 0.0373623 -0.08777753 0.06989755 0.07014245 0.007572555 -0.0320977 -0.003893828 -0.09883842 0.06954264 -0.002169705 -0.03480625 -0.02044344 0.02436163 0.09149765 0.08730867 -0.05532307 -0.04241776 -0.0512059 -0.001742715 -0.093414 -0.06951153 0.0478806 0.08714848 -0.07341795 0.03101252 -0.04173183 0.008816409 0.08720356 0.03605273 -0.01661277 0.0787365 0.01385037 0.008069599 -0.05016338 -0.02909443 -0.09170664 -0.006951523 0.0153357 0.04158623 0.07972652 -0.01551665 0.00210017 0.09266304 -0.03241407 0.0468145 -0.08179943 -0.03342995 0.08338998 -0.07957727 -0.0937205 -0.03213066 -0.04212071 0.07633426 -0.05478204 0.007732463 -0.02426625 0.05240506 0.0655565 0.04714239 -0.005538934 0.02113903 0.04313217 0.0508628 0.08574467 0.09748965 -0.005008644 -0.01695672 -0.02058136 0.009368944 0.04549314 -0.02314352 -0.07829054 -0.05153959 -0.08072963 -0.0731492 -0.03157634 0.0297506 0.05593189 -0.01310784 -0.09911633 -0.03395568 0.07037025 -0.03864295 -0.03447825 0.02372422 -0.007991171 -0.07968386 -0.08602943 -0.03038278 0.06312763 0.05220655 -0.03801457 0.06507894 0.05584432 0.07651519 0.06446439 -0.0479851 -0.08206597 0.05986909 -0.0490199 0.04429991 0.02201113 0.04980066 0.004508686 -0.08719649 0.07950189 0.09910768 0.05434197 -0.01547317 -0.03612489 0.08108544 0.0009277702 -0.06223902 0.06411771 -0.004893887 -0.07827886 0.03467184 0.04203786 -0.009377402 0.08628958 0.01796752 0.08132446 0.07835376 0.03262247 0.03664279 0.06699181 0.09319041 0.05295178 0.02898185 -0.02882849 0.04672334 0.07524967 -0.01526142 -0.07486696 -0.07239705 -0.0004846215 -0.01232741 -0.03104045 -0.02833669 0.08360582 0.06210922 -0.007652372 -0.05005124 -0.09679856 0.03416401 0.05387789 0.04757558 -0.0955013 -0.05566657 0.08649956 0.06447647 0.07056727 -0.02091031 -0.05909143 0.01523777 -0.06553672 -0.07891605 0.08788723 0.004331803 0.04383837 0.04760278 0.004355609 -0.04227207 0.05542523 -0.008204383 0.008910156 0.008298135 -0.04817916 0.02152405 -0.06157227 -0.0197044 0.06644811 -0.03630539 -0.0647775 -0.04122166 -0.04466424 0.09953111 -0.09887864 -0.06590489 -0.03393208 -0.04354457 0.08692429 0.09440006 0.0627024 0.0006967187 -0.003302878 -0.07967297 0.04416562 0.0643756 -0.07408781 0.08729906 -0.03039557 -0.085811 0.06389791 0.09557819 -0.06281815 0.05107367 0.08069491 -0.08205678 0.05286168 -0.09608775 0.04110489 0.05865058 -0.02276261 -0.09879822 0.009880066 0.031912 -0.09299824 0.04774685 0.03102751 0.07513094 0.04755446 0.01572617 -0.03152459 0.09195545 -0.01932889 -0.05387924 -0.07446656 0.02089107 0.07872883 -0.03289939 0.03914211 0.08288456 -0.0609627 0.03563931 0.01564579 0.02396067 -0.03320537 0.09425785 -0.04198259 -0.04281925 -0.02548916 -0.005195904 -0.05532637 -0.0846706 -0.09407867 0.07448061 0.01619565 -0.08689078 0.06021646 0.07773054 -0.02756578 -0.05409334 -0.06270587 0.08779534 0.004884744 0.09243696 0.03951414 -0.0439687 0.05269268 0.02294737 0.09682941 0.02028564 -0.053513 -0.01870969 0.05975585 -0.05541834 -0.04706981 0.05087781 -0.07993983 -0.05665016 -0.0465126 0.09502585 0.05765967 -0.01102141 -0.09800643 -0.05219487 0.0132892 0.07136386 -0.01142547 0.08937363 0.0760321 0.05348627 0.04558405 0.05259346 -0.04076174 0.08971605 -0.004844576 0.0282034 -0.03913607 -0.06645949 -0.0992135 -0.008407444 -0.03605186 0.08536186 -0.02764795 0.06756115 -0.02694644 -0.05797355 0.0521103 -0.08486309 0.0259655 0.07394405 -0.04869323 0.05700394 0.09234438 0.04494471 0.05023305 0.08363964 -0.02286459 -0.09824957 -0.07851493 -0.02962875 0.04434479 -0.003127021 -0.04136468 0.07872491 -0.06723668 -0.01549056 0.09994455 0.03307402 -0.01349916 0.05801658 -0.0002959192 -0.00464074 -0.05186261 -0.09075116 -0.08812981 0.01920637 -0.01642521 0.06997981 0.06286072 0.009335006 0.02053547 -0.07373106 0.001052403 0.09069481 -0.09627794 -0.0003587425 -0.09884936 0.05324603 -0.03457594 0.006695592 0.02710569 -0.0735672 -0.003084105 -0.03736218 -0.06116056 -0.09706794 -0.01075577 -0.04289603 -0.07788821 0.01773969 -0.03441808 -0.03694929 -0.08150207 0.006801677 -0.02502606 -0.03675447 0.07724839 0.09665488 -0.09614994 -0.04001531 0.01444464 0.08838852 0.01812038 0.06711048 -0.07382149 0.06617202 -0.08640185 0.03486257 -0.01662296 0.004758298 -0.0644265 -0.09877294 0.0734114 -0.07945607 -0.02542997 -0.05316262 -0.03848177 -0.04359819 0.03110682 -0.04716086 -0.03198205 -0.05033446 -0.07361247 -0.01356159 0.01449893 0.04828074 0.042325 -0.07867157 -0.00224207 0.0930443 0.07536044 -0.01035964 0.03631238 -0.08446635 0.04373242 0.06024208 0.08703623 -0.06491639 -0.02377201 0.01021453 -0.01894082 -0.08619795 -0.05077713 -0.08883781 -0.07894605 -0.04329082 -0.0766368 -0.02413589 -0.02263192 -0.08219865 -0.02170172 -0.07933087 -0.0232205 -0.02586827 -0.07120115 0.06824302 0.05970624 0.08191148 0.0874955 0.07635733 0.0485611 0.06415552 0.06134555 -0.04731414 -0.04051936 0.01195406 -0.09734904 -0.03342861 -0.03999298 0.08018364 0.09176059 0.01635275 0.08677645 0.00118432 -0.01263817 0.07924398 0.05295317 -0.08188664 0.02069403 0.04746672 -0.09470326 -0.07885146 0.07091039 -0.02169504 0.05150553 0.06047497 -0.007962072 -0.03252381 0.06071528 -0.01558628 0.07693274 -0.07359034 -0.08557697 0.02248017 -0.008904743 0.03272555 0.06006216 0.04622177 0.05581545 0.05248864 -0.03655238 0.05862046 0.07919605 0.005649019 0.003658426 -0.006566984 0.02981114 0.05786923 -0.07038329 0.09834529 0.06258362 -0.08609415 0.09753998 0.02417927 0.01076027 0.06856855 -0.07323604 0.01485037 -0.083404 -0.0262981 0.08273041 0.09057467 0.04818384 0.09853045 -0.07643035 0.06161375 -0.002472824 0.07335944 -0.0640473 -0.004787338 0.01219739 -0.003030962 0.04531167 0.07683837 -0.01789767 0.01739798 0.005487573 -0.02540693 0.07016953 0.01110069 -0.004661643 -0.008519567 -0.03913951 0.01658491 0.04488541 
0.04474436 0.05619163 -0.07971203 0.008797086 -0.07964121 0.06503991 -0.08645432 0.05455201 -0.01449038 -0.05475068 0.07647425 0.08985662 0.06553935 -0.05980328 0.05360378 -0.06565738 -0.03815563 0.02903556 -0.0129281 0.08240283 0.02767286 -0.08460118 0.07097048 0.01545572 0.06433585 0.01087751 0.07154498 0.0408097 -0.05019751 -0.05062643 -0.06100047 -0.09491579 0.06965431 -0.06995358 0.05505632 0.01192741 -0.06800728 -0.0398307 0.0529228 -0.07553174 0.02174774 -0.009571976 -0.05182451 0.004304338 0.05237008 0.06903911 0.0163325 0.07045128 -0.04719535 0.04023924 0.02412554 0.07099845 0.07245978 0.01852706 0.08525846 0.0373665 -0.0120087 0.01760023 -0.07116618 0.05831164 -0.07172199 0.02897496 0.04915811 -0.06164098 -0.03839422 -0.04208296 -0.01953552 0.08199453 0.01941074 0.08208904 0.04839735 0.07774533 0.06046399 -0.02450505 -0.04526993 -0.006590891 -0.07106117 -0.0308848 0.01852862 0.04602242 -0.0761228 -0.05369376 -0.00626756 -0.01556192 0.04267306 0.07443893 -0.0755678 0.0326929 0.08109011 0.07648092 -0.08329468 -0.02403551 0.02958388 -0.04782011 0.06518687 0.0006449223 -0.05048744 -0.05058941 0.09478485 -0.09423936 0.0400488 0.09164172 -0.01931365 -0.02806069 -0.06465989 -0.02056149 -0.02506473 -0.09027397 0.08743972 0.04845883 -0.0908669 -0.08147129 -0.03751882 -0.0019647 0.005822337 -0.05066722 0.02930683 0.09319649 -0.0352338 -0.04327966 -0.01014842 -0.07150959 -0.0450811 0.01612191 0.003256929 -0.009386653 0.05624335 0.0139207 0.07620924 -0.005950648 0.08239203 -0.09191506 0.002689982 0.01504619 -0.009696186 0.08096371 -0.06495438 -0.09590282 -0.01451771 -0.07110738 0.07199313 -0.05010247 0.082392 0.09376744 0.08023454 -0.07308272 0.02862893 0.03223571 0.04157795 -0.07946147 0.03126229 0.09973263 -0.09879792 -0.0774703 -0.04166142 0.08558676 -0.06982218 -0.09469775 -0.05703747 0.004729354 -0.07402432 -0.03790199 -0.03295439 -0.01235112 -0.08408429 0.06757694 0.050511 0.04190259 -0.03847897 0.02009444 0.03621829 -0.08561125 0.09095035 0.03803096 -0.05084775 -0.03242609 -0.004877728 0.08520042 0.01757731 -0.009125578 -0.01733695 -0.02134903 -0.01062024 -0.03539106 0.0777695 0.04394592 0.004552436 0.04113529 0.04690915 -0.02772252 0.01693641 0.003904879 0.07708742 0.02063017 -0.07132304 -0.0291373 0.05931261 0.04071089 -0.05274079 0.01146607 0.01060119 0.0306321 -0.06106081 0.01005383 -0.09048335 0.01142724 0.04455136 -0.0568432 -0.06924047 -0.02916997 -0.007520646 -0.02589237 0.06039158 -0.03483472 0.06676257 0.01931732 -0.02502929 -0.08655536 -0.08036207 0.0900764 -0.05665021 0.005125964 0.02155439 0.03934574 0.063219 0.01050923 0.003506947 -0.03048902 -0.07472781 -0.05630621 -0.05783504 0.03182065 0.01647793 -0.03580261 -0.09582803 -0.0642876 0.07681391 0.09153259 0.0173084 0.03744955 -0.03398421 0.03425006 -0.00681234 0.05136546 -0.01408774 0.07490861 0.09273741 -0.0888698 -0.0001590073 -0.01566178 -0.04505754 0.09129574 -0.01110246 -0.002166915 -0.005890388 -0.09564204 -0.05084611 0.008175385 0.04812905 -0.08775886 0.03109859 0.006569719 0.03682008 -0.0686221 0.0942383 0.04356194 0.02351868 -0.03044357 -0.0843531 0.003361702 -0.01149855 -0.03881744 0.08402236 0.09770823 -0.009093386 -0.09700272 -0.008136106 0.081704 0.07734799 -0.02089434 0.06527575 -0.06180863 0.09460872 0.009434879 -0.09891086 -0.09884315 -0.0444588 -0.00234893 0.09631359 -0.0856464 0.004128528 0.06522298 -0.03731555 -0.07862688 -0.04330928 -0.003088069 0.02706071 -0.08092369 -0.0455514 -0.060671 0.05145919 0.04334365 0.05400712 -0.02604432 0.05574727 0.08140868 0.09425503 0.07007135 0.0161545 0.06317889 -0.03067185 0.0134264 0.07174598 0.08161069 0.08257059 0.03436538 -0.009816456 -0.02223282 -0.03784315 -0.07201736 0.09416191 0.0434452 0.04671144 -0.09449369 0.02465575 -0.06796446 -0.02318597 0.08622167 -0.03855531 0.02902554 0.001502585 0.04206414 -0.06215379 -0.07447832 0.02461857 0.09781262 -0.09823772 0.09122705 0.03186452 -0.03844212 0.06596997 0.07622061 0.03869326 0.0983295 -0.007690299 -0.07672679 0.007129276 0.08998909 -0.0320321 0.01767091 0.06685515 0.03827175 -0.07029643 0.08559681 -0.06362703 0.04266822 -0.04485073 0.01607568 0.03618274 0.03247095 -0.01396 0.08467501 -0.06703706 -0.04363985 0.01704017 -0.03055993 0.06140355 0.04446018 0.02238429 -0.03773255 0.03570069 0.04516291 0.04785807 -0.06411479 -0.07754674 0.05171676 0.09757876 -0.0330064 -0.08381696 -0.07444988 0.0128456 0.01509776 0.09496136 -0.09208731 -0.05839079 -0.06626361 -0.03860286 -0.0847102 0.08331467 -0.0271346 0.05118616 0.05505878 -0.04332437 0.01609494 -0.05497965 0.001940966 -0.01563804 -0.03902108 0.0123082 -0.07252031 -0.06514534 0.05272565 -0.0297284 0.07968283 -0.02338632 -0.09669691 -0.01101279 -0.04073725 0.009231604 0.03566191 -0.04090449 0.00810759 0.01457393 -0.08737328 -0.07500793 0.0851047 -0.01730634 -0.03352442 0.02509936 -0.09731232 -0.09022885 0.07454117 -0.04245251 -0.04340879 0.05079137 -0.05886972 0.07858238 -0.01249904 0.081848 -0.07531061 0.01642718 0.01029745 0.05715982 0.03200526 -0.08295772 0.0117919 0.08691209 -0.07342763 -0.08916826 -0.02441186 0.04680144 0.07723214 0.06490177 0.007722878 -0.05239575 -0.08720112 -0.08375793 -0.00662182 -0.05832268 0.006069958 -0.05483538 0.02561179 0.005097473 -0.08411153 -0.01650017 0.09439915 0.0937254 0.02304052 -0.09981144 0.05338836 -0.06899998 -0.04346045 0.0813659 -0.01983947 0.05067348 -0.06485933 -0.08119416 -0.03407946 -0.07038563 -0.0308496 0.0412663 0.0884377 0.001048136 0.02486587 0.08970875 -0.02410004 0.0710861 -0.08698972 0.04883826 0.02238275 0.05051371 0.06339029 -0.07315698 0.06856548 0.07239544 0.08134227 0.01771909 0.05938002 0.02304854 0.07395873 0.06734417 -0.08115026 -0.047895 -0.0119487 -0.04795805 -0.01981674 0.03334748 0.09183279 0.05248013 0.08928784 -0.03152856 0.0209805 0.07636531 -0.06368214 0.0108857 -0.06151831 0.06794415 -0.02195938 -0.03131682 0.06590517 -0.04131354 0.08685821 0.08259856 0.03802393 -0.06676419 0.02897344 -0.06905587 0.03844675 -0.05942086 0.03091081 0.06449623 0.03353571 -0.07493934 0.04910455 -0.04051499 -0.03335891 0.07806219 -0.05855628 -0.007903153 -0.03513993 -0.05082756 0.004469764 0.05936999 0.05260795 0.006777692 0.01200292 -0.06111137 0.08157064 0.01440042 0.07684847 0.03940652 0.05889815 0.01763008 0.01155915 -0.05384525 0.01712284 -0.05948727 -0.03228141 -0.04736907 -0.08606058 -0.02526574 0.03481089 0.01196649 -0.03975801 -0.0518154 0.09269394 -0.05964605 0.07243242 0.08584844 0.0897758 0.02985042 -0.09918804 0.0008120179 0.04488198 -0.08866502 -0.09732596 -0.02046211 0.06113661 -0.05389532 0.04672698 0.02030133 0.08817466 -0.05583003 -0.04180942 0.09205311 -0.07360955 0.09952891 0.08878972 0.05127758 0.01666157 -0.09526757 -0.08645694 -0.08131701 0.004524982 -0.001706922 -0.09944724 0.0368328 0.02567494 -0.08281296 0.0971299 0.09726501 0.05996601 -0.03684903 -0.07579578 0.06271961 0.02859045 0.004488599 0.02373078 -0.02340936 -0.03937554 -0.0807696 0.0634675 0.0751097 0.04278282 0.09874032 0.01627061 0.08927222 -0.04632127 0.03017922 0.07501829 0.06182275 -0.08577255 -0.07891025 -0.009096533 -0.05506793 0.08325992 0.05319805 0.04335886 0.03525882 0.06532162 0.02463037 -0.001711625 -0.01839007 0.01467439 0.06697899 -0.06547785 0.08974152 0.05859647 0.073988 -0.05298427 -0.002362639 0.0271723 -0.05417413 0.09236776 0.002190554 0.02984698 0.01751624 0.006040669 -0.001245815 -0.05064387 
0.02944158 -0.06068659 0.07434678 0.08506445 0.0448961 -0.03336252 0.04287314 -0.02102166 0.09724211 0.08535298 -0.04253817 0.07361708 -0.006476385 0.0880049 0.06665035 0.09209047 -0.002659577 -0.02252036 -0.05653005 0.07636706 0.06370532 0.08495803 -0.03334754 0.07376156 -0.03243807 0.02605199 0.08416035 0.02493908 0.06432875 -0.02319914 0.02430671 0.02875065 0.01509264 -0.09564305 0.02525833 0.07370496 0.01634362 -0.008366609 -0.08579043 0.04154208 -0.06646823 0.04329096 0.07505508 0.03326253 -0.02615016 0.03097556 0.006857264 0.06950369 0.01942966 0.01684144 0.0806443 0.08811501 0.09246653 -0.06643417 -0.08448252 0.09091254 -0.03818828 0.02659649 -0.07965706 0.01345886 0.06114978 -0.05004473 0.04849118 0.09635788 0.02217674 0.05029535 0.05717428 -0.07849037 0.01872199 -0.0773639 0.03115295 -0.0799253 -0.0302091 -0.06743438 0.08622147 -0.05130179 -0.0507268 -0.03987711 0.02709147 -0.0005167305 -0.0661332 -0.06053251 -0.09281465 0.02180665 -0.05820144 -0.02819215 -0.04257246 0.00623523 0.04909898 -0.02696981 -0.08291818 0.05988723 0.02534582 0.05611004 0.0640522 -0.02748966 0.04551225 -0.03244451 -0.01665294 0.0874859 0.03422132 0.009487665 0.02130007 0.07843747 0.08932927 -0.0181767 -0.02747066 -0.03650629 -0.001159346 0.09534877 -0.04368826 0.09474038 -0.08459856 0.04846078 -0.03349432 -0.08254519 -0.05748272 0.08493029 -0.009899682 0.07189865 0.0868302 -0.01346821 0.04303909 -0.004981273 -0.01022468 0.05096413 -0.05595663 0.00529542 -0.01266686 0.04295007 0.05803299 -0.09168501 -0.05507945 -0.08943395 0.01865172 -0.04988606 -0.05117598 0.08252843 0.0573804 -0.0430298 0.06694964 0.03126012 -0.07646185 -0.069889 0.02260238 -0.008932537 -0.04666962 0.004390669 0.03277269 0.09179889 0.0381413 0.08727767 0.00326159 0.0240558 0.02700235 -0.002807397 0.05121097 0.07797136 0.06759924 -0.02374712 -0.07143746 -0.01493614 0.05016475 -0.02095531 0.04456291 0.06984574 -0.02032112 -0.07187518 0.09313866 -0.07293236 -0.08891843 -0.08319706 -0.004167342 0.01926553 -0.09802511 -0.0543326 -0.0478447 0.06899685 0.08026619 0.06104835 0.01017004 0.08595993 -0.02466556 0.06216958 -0.08104402 -0.07642307 0.07952764 0.04934101 0.004046989 0.06560482 -0.09494129 -0.06050039 0.03577354 0.04335996 -0.080149 -0.02866908 -0.01323978 0.003103769 0.04968622 -0.08081702 -0.08935992 -0.005642003 -0.06890144 0.08440942 0.01369475 0.08983552 -0.03071938 0.07587039 -0.0005148947 -0.01834767 -0.05575254 -0.04790039 0.03695808 -0.007063252 0.06193591 0.08787233 0.05076764 -0.005726916 0.08367449 0.06268982 0.007633996 0.05430455 0.01027715 -0.02492466 0.04133777 0.05631137 -0.07279515 -0.05591329 0.05431743 0.01566632 -0.04778829 0.05345603 -0.06562445 -0.07714132 -0.04034125 0.05696932 -0.07980174 -0.08014189 -0.01984668 0.03921377 -0.09773023 -0.07392889 -0.07125344 0.09726728 0.02674847 0.0862753 -0.01176078 0.03246385 -0.03837784 -0.07897072 0.07886676 -0.08591083 -0.02867663 -0.05043087 0.01911854 -0.03155724 0.05757325 0.04299619 -0.02452968 -0.07501166 -0.08447367 -0.08125297 0.00523498 0.004347015 -0.05458462 0.0396318 0.0986016 0.02274352 -0.02450356 0.08907063 -0.02645155 -0.04271417 -0.09998202 0.08303189 0.07592149 -0.09259554 -0.05105827 0.01179053 0.01741987 0.005409944 -0.09309606 -0.03497786 0.08938041 0.05990783 0.01904038 -0.07800065 -0.06933045 -0.0707972 -0.04887469 -0.01117883 -0.01694909 -0.09359082 -0.03940539 0.08018748 0.06723394 -0.07042984 -0.01832315 0.08754938 0.09033989 -0.04937298 -0.02036401 0.0368461 0.07410157 -0.009166688 -0.04974955 -0.07447384 0.05048771 -0.0205406 0.06205555 0.01863405 0.0436497 0.002234042 0.04249146 0.05120673 0.01630545 0.03730314 0.06674602 0.04003302 0.04462277 -0.03392927 0.01305513 -0.03781712 -0.03084283 -0.06496229 -0.04571201 -0.05618858 -0.07391211 0.05242649 0.0112548 0.004705894 0.058481 0.0681674 -0.02164009 -0.002496755 0.06361634 0.00851413 -0.01408796 0.07746126 -0.0214267 0.05029419 -0.03177915 0.006759894 0.06270492 0.03949356 -0.0838396 0.01666494 0.05354425 -0.002518225 0.09959046 0.05945827 -0.05562139 -0.04949951 -0.004935646 0.05475548 -0.007666785 -0.009066797 -0.03904594 0.004572904 -0.05797891 -0.05883265 -0.03074754 -0.01610428 0.03686596 0.008349585 0.08018004 0.01727859 0.06263436 0.06112042 0.08415417 0.01043502 -0.04953418 0.07341392 0.007013476 -0.01690497 0.01281606 0.04595528 0.0796096 0.04923135 0.03619 -0.07665101 0.005093527 0.08049501 0.0877709 0.02275977 0.00628357 0.006719947 0.05267039 0.0531456 0.09472229 -0.088888 -0.08858846 -0.07687198 -0.02587047 0.07075117 -0.03100439 0.08427858 0.06539359 0.08739568 -0.08397922 -0.09074275 -0.05251597 0.0003842592 0.03785014 0.04612503 0.02801845 0.01462917 0.03790807 -0.02325126 0.07646507 0.07091919 0.01665729 -0.01263275 -0.0370569 -0.03257738 -0.07731245 0.04448444 0.006466317 -0.06737424 0.07378566 -0.05788386 -0.04381278 0.04833082 0.005340791 -0.08797536 -0.03383083 -0.01926737 0.04056687 0.05904974 -0.06124602 -0.02687467 -0.09185676 0.0384285 0.09076822 -0.01086168 -0.07591864 0.09766513 0.04601551 0.03868352 -0.08164467 0.0761196 -0.05655893 -0.09299167 -0.09165337 0.03482638 -0.09399556 -0.01172097 -0.04374312 0.04439668 0.02924113 0.08393396 0.05413134 -0.01362875 0.06822043 0.002034497 0.07234601 -0.05124825 -0.04137244 0.05140845 0.02837272 -0.03208251 0.08307835 -0.04826409 -0.06775519 0.002230167 0.03702933 0.00252707 -0.0852027 0.08066881 0.01627447 0.03846623 0.06273188 -0.03922154 0.02125046 -0.09962275 -0.09997439 -0.08632213 0.001689124 0.0591148 -0.09760337 -0.02293156 0.03374464 -0.02103521 0.02532718 -0.05795163 0.02122596 -0.04443286 -0.04420227 -0.09111726 0.03360144 -0.03538432 0.08666307 -0.02392599 -0.09401871 0.03625096 0.09100292 0.06812828 0.08075205 -0.02227545 -0.09598613 0.0439646 0.06258744 0.09116717 -0.01989921 0.05134141 -0.07602762 0.06846615 -0.001542497 -0.0791285 0.02138335 0.04811794 -0.0459726 -0.07915662 -0.0163618 -0.06891763 -0.03616882 -0.0978808 0.05522048 -0.05431434 0.07458265 -0.06386172 -0.02551643 0.009238839 0.0003502607 0.04242001 -0.008253413 0.04212365 -0.02803785 -0.03304846 0.09918933 0.04762674 -0.007648563 -0.08499969 0.06865469 0.06069176 0.02173997 0.02298092 -0.09341016 -0.033126 -0.09919708 0.01587005 -0.09171455 -0.03458882 -0.07797851 0.059469 0.04782138 0.01384903 0.03623536 -0.01059963 -0.01821299 0.07719137 0.09606583 0.04287484 0.02183979 -0.0004981876 -0.0830526 -0.03573601 -0.05522356 -0.08687571 0.0074718 0.05906097 0.07069107 -0.02648626 0.04864762 -0.009556592 0.05787827 -0.03123154 -0.02290992 -0.04929614 -0.01331514 -0.09849636 0.0520257 0.05373457 -0.02289076 0.08503731 0.06186404 0.09397338 0.09690624 0.08468735 0.08679415 -0.02762273 -0.0125868 -0.004746235 0.08810449 -0.04811743 0.0272653 -0.08555988 0.01880592 -0.04626798 0.03576992 -0.08616044 -0.06835791 0.05585644 -0.05194811 -0.03928575 0.007576776 -0.05431848 0.09437249 -0.01468276 -0.009696669 -0.08695002 -0.01751775 0.0703764 -0.007171524 -0.02845014 0.02327603 0.005947685 0.05368543 -0.02848321 0.02240409 -0.02131738 -0.09231602 0.02767683 0.0155315 -0.05842625 -0.04682362 0.04298865 -0.06732302 0.04707168 -0.08082396 -0.06391522 0.04116356 -0.02630789 -0.003300965 0.06356249 -0.05778568 -0.06610916 0.05567132 0.09570413 0.06903517 -0.05528579 -0.09501737 -0.08416898 0.02199335 0.02510519 -0.07690295 -0.0001126885 0.09155852 0.01553137 -0.07662306 -0.09399995 
0.0775601 -0.01066064 -0.04040838 0.08123843 -0.09963273 -0.05452935 -0.007173193 0.03284374 0.02262155 0.04405461 0.01766691 0.04176923 -0.006726897 -0.04835209 -0.03929203 -0.05111225 -0.05934849 -0.09333631 -0.04824165 -0.01401738 -0.01547675 -0.04665443 -0.09225179 -0.04922378 0.08642172 -0.03157046 -0.01932415 0.052485 -0.06595121 -0.07571291 -0.06027449 -0.02492179 0.08742373 -0.09491919 0.08872515 -0.08933987 -0.07504489 0.08076312 -0.05616071 0.05881349 -0.01365112 -0.04133599 -0.07333992 -0.0857191 0.02742085 0.03283313 0.08854911 0.008201885 0.07535277 0.03229325 0.07443837 0.07877564 0.02171084 -0.0990973 0.07665276 -0.09706534 0.05608177 -0.01536743 0.08058973 0.07741212 -0.03194154 -0.06213173 -0.05558294 -0.03171575 0.09443209 -0.01069943 0.0723291 0.05309273 -0.09651361 -0.01825998 -0.09169399 0.02616408 -0.03656259 0.09744266 0.05586872 -0.07274263 0.05743739 0.02218821 -0.008706338 0.09882671 -0.01033921 -0.03993705 0.003091741 -0.06097056 0.05901904 -0.01902028 -0.06744968 0.04937924 -0.01450126 0.02186847 0.07837943 -0.09038179 -0.08540054 -0.005410993 -0.01898847 0.08681581 0.04767979 -0.08693925 -0.07708123 -0.02141039 -0.04973639 0.04148275 -0.05688902 -0.06421727 -0.04880934 0.06570034 -0.03111865 0.03343358 0.07162166 -0.09684771 0.03619445 0.009557152 0.05627149 0.02683297 0.009605169 -0.03024821 -0.07363454 -0.04040501 -0.01144715 -0.01252958 0.04504095 0.02262461 0.06426825 0.07363309 0.05692248 -0.04915366 -0.01068782 0.01206936 -0.05536131 -0.09086933 0.01378481 -0.0866546 0.01997572 -0.08131121 -0.06765644 0.01439918 -0.07409211 -0.02060301 -0.0897897 0.09331417 -0.08930911 0.005738449 -0.01968724 0.07605999 0.06752817 0.00659008 -0.02054089 -0.07244464 0.04584956 0.07182442 -0.02586131 -0.01324633 0.02393035 0.01619175 -0.01912042 0.06947465 -0.01721595 0.02202232 0.06513368 -0.08577205 0.02879671 0.01204279 0.06778765 0.09942587 0.0975516 0.06674019 0.04311818 0.06071461 -0.08962473 -0.05433291 0.06714117 -0.0932432 0.09465533 -0.02620074 0.04161686 0.06305695 -0.07761691 0.08074041 -0.09394071 0.002999353 -0.08667795 0.03306616 0.09229193 0.0471226 -0.003706133 0.0246547 -0.09599619 -0.07621564 0.06485361 0.09653216 0.05208451 -0.08244189 -0.08792006 0.01577164 -0.08167285 -0.004475373 -0.05905573 -0.0673327 -0.08412553 0.03504989 0.028519 0.06736977 0.005229402 0.04630231 -0.04460846 0.06028404 0.08555292 0.006635952 0.06203046 0.09944908 -0.05266893 0.04471685 0.05475395 0.08009491 0.06586538 0.008565581 0.04010881 -0.0301861 0.04240084 -0.01497686 0.0778301 -0.06415075 0.07685089 -0.07739484 -0.09586003 0.06199328 -0.05750142 -0.04232037 0.0424932 -0.01403383 -0.05216725 0.0217427 -0.01371433 0.02224718 -0.02628103 -0.04094757 0.08708046 -0.05017934 -0.03364916 -0.08172636 -0.08990924 0.02202364 0.00404023 0.06917621 0.003750634 -0.08641899 -0.07104667 0.0831857 -0.04435205 0.01323934 -0.05330269 0.07709078 -0.06040007 0.02856479 0.02303662 -0.00962227 0.01878748 0.02582055 -0.07728329 0.08903053 0.02119672 -0.09296409 -0.09641023 0.09394568 0.0309927 0.09470226 0.01916567 -0.07852739 0.0742686 0.08921101 -0.09185623 0.07433061 -0.04790161 -0.01197353 -0.03021683 -0.02266045 0.06995553 0.08787216 -0.06334423 -0.08028951 0.0004885555 0.07664692 -0.084746 0.0628103 -0.03462529 -0.01977922 0.0600644 0.01856753 -0.09865603 0.05089515 -0.08946224 0.04528803 0.09663584 0.06803872 -0.07687897 0.009634423 -0.0237968 0.07952925 -0.03099748 0.08578537 0.06939538 0.01619674 0.003021371 -0.05597206 0.005018079 0.001736748 -0.06391227 0.09085319 0.08320188 -0.01041023 -0.08416404 -0.06619939 -0.01041321 -0.09658033 0.04926699 0.03895794 -0.0284592 0.08641344 0.03862047 0.02335322 0.01138936 0.01502589 -0.05945728 0.06515477 -0.002024889 -0.0345613 -0.07900425 -0.0852728 -0.06429598 0.038377 0.05660725 0.07399952 0.01899676 -0.006313562 -0.03781514 0.03107157 0.04546297 0.04457096 -0.08017404 -0.02917399 0.01882624 0.01945492 0.04443787 0.04189556 0.04599884 0.005026781 0.01381011 -0.0616628 0.0795569 -0.08536778 -0.06722441 -0.05049387 0.0408525 -0.03545168 0.01055516 -0.04648793 -0.06129238 0.01586592 -0.007396966 0.03487435 -0.01280159 0.009922314 -0.0200886 -0.02728998 -0.0565323 -0.07526501 -0.0541632 -0.006502313 -0.06974971 -0.0008420467 0.03674567 0.05710645 0.05813542 0.06858613 0.07852363 0.07663237 -0.07480551 -0.07954084 0.08106738 0.08381452 -0.05916296 0.08615984 -0.09570327 -0.02971919 0.08602598 0.0367724 -0.009671438 0.04529459 -0.06879535 0.02635508 -0.001421928 -0.06235711 -0.04936084 -0.05440423 -0.005687773 0.03598469 -0.06504432 0.07973337 0.02551907 0.005590987 0.03559591 0.04122462 0.06024804 -0.008280957 -0.02877993 -0.0142692 -0.06903055 -0.006033897 0.07551836 0.08938269 0.007965112 -0.01190957 0.07246385 0.04066656 -0.03075362 -0.03671094 0.05499965 0.05615196 0.0481555 -0.07674172 -0.04330943 0.01253968 0.03231112 -0.02573385 -0.08773488 -0.06160321 0.06028322 0.007521534 -0.01576472 0.03645946 -0.09259822 -0.02378312 -0.04824502 0.0311762 0.06644814 -0.08009819 0.07371503 -0.05767491 -0.09510082 0.01375639 -0.01113992 -0.08978499 -0.02962632 0.06429078 0.07536862 0.0005962491 -0.09245005 -0.06417166 -0.06009517 0.0428027 0.001632202 0.008509303 0.04845374 0.07214836 -0.06573283 0.05563629 -0.0955478 0.02187685 -0.03120901 -0.01802309 0.08836551 0.0560597 -0.07474666 -0.09509649 0.01954112 0.08191384 0.08966418 -0.07713445 -0.04651698 0.04941742 0.05671626 -0.02883028 0.001885665 -0.09595169 0.08434872 0.04978827 -0.09353275 0.07910877 -0.07907217 -0.02222126 0.003792775 -0.07465673 -0.06897741 -0.07563642 -0.03773589 0.07503332 -0.07473234 -0.03036622 -0.0666245 -0.04085096 -0.03394204 -0.02030195 -0.05298292 0.04791367 -0.016127 -0.07310765 -0.08926305 -0.0645836 -0.0942805 0.07605278 0.03587711 -0.07437226 -0.08037814 -0.06591364 -0.06888448 -0.07524124 -0.01988716 0.08178945 -0.03764682 -0.04252219 -0.0310221 0.08435506 0.04925434 0.0119473 -0.09515336 -0.09096743 0.03286692 -0.04806568 0.08917332 0.09996226 0.04525855 -0.03554416 -0.07440823 -0.01568689 0.09859513 0.07901261 0.06779128 -0.07232771 -0.09125073 0.05377186 -0.01695343 0.03656824 0.02104585 0.04115633 0.04648693 -0.04878554 0.01256576 -0.007573187 -0.05052471 0.02895488 0.03366251 0.08683928 0.08730774 -0.06463064 -0.04857006 -0.02868618 0.01436508 -0.08316182 -0.04344375 0.07252629 -0.03608737 -0.06811851 0.07142537 -0.06119463 -0.04523825 0.09802454 -0.06946497 0.06607089 0.04628009 0.02847433 0.01752964 0.02913804 0.001549768 0.06169156 0.08245894 0.09121605 -0.0622324 -0.09325296 0.04920578 -0.05567679 0.05680723 -0.01600047 0.05374426 0.04663454 0.004334605 0.05726203 -0.07412024 -0.09837199 0.0004902482 0.004022169 -0.04558847 -0.08102072 0.0935308 0.009846223 -0.04641317 -0.0618319 0.03288681 0.05971166 -0.03098704 0.02388526 0.03790713 0.02605108 -0.07412272 -0.07927273 -0.09875748 -0.01301325 0.09343399 -0.06690421 0.09985105 0.05372541 -0.007177436 -0.007750541 0.05674771 -0.06223598 0.05600233 0.02263516 0.0284292 -0.05356118 0.02497871 -0.09134927 0.02720834 -0.09340107 0.01769316 0.01979203 0.06506222 -0.07362416 0.03471748 0.07508761 -0.001639813 0.02082638 -0.01782535 -0.05252817 0.003155518 0.08392935 0.00641427 0.04449617 -0.04466102 0.05075216 0.06120275 -0.0837394 0.04560849 -0.04810175 -0.05330152 0.06986173 -0.06979653 0.07043337 0.08988272 -0.01874432 -0.01297091 -0.08422837 
